FANN_FLO_2.1
num_layers=4
learning_rate=0.700000
connection_rate=1.000000
network_type=0
learning_momentum=0.000000
training_algorithm=2
train_error_function=1
train_stop_function=0
cascade_output_change_fraction=0.010000
quickprop_decay=-0.000100
quickprop_mu=1.750000
rprop_increase_factor=1.200000
rprop_decrease_factor=0.500000
rprop_delta_min=0.000000
rprop_delta_max=50.000000
rprop_delta_zero=0.100000
cascade_output_stagnation_epochs=12
cascade_candidate_change_fraction=0.010000
cascade_candidate_stagnation_epochs=12
cascade_max_out_epochs=150
cascade_min_out_epochs=50
cascade_max_cand_epochs=150
cascade_min_cand_epochs=50
cascade_num_candidate_groups=2
bit_fail_limit=3.49999994039535520000e-001
cascade_candidate_limit=1.00000000000000000000e+003
cascade_weight_multiplier=4.00000005960464480000e-001
cascade_activation_functions_count=10
cascade_activation_functions=3 5 7 8 10 11 14 15 16 17 
cascade_activation_steepnesses_count=4
cascade_activation_steepnesses=2.50000000000000000000e-001 5.00000000000000000000e-001 7.50000000000000000000e-001 1.00000000000000000000e+000 
layer_sizes=65 129 129 2 
scale_included=0
neurons (num_inputs, activation_function, activation_steepness)=(0, 0, 0.00000000000000000000e+000) (0, 0, 0.00000000000000000000e+000) (0, 0, 0.00000000000000000000e+000) (0, 0, 0.00000000000000000000e+000) (0, 0, 0.00000000000000000000e+000) (0, 0, 0.00000000000000000000e+000) (0, 0, 0.00000000000000000000e+000) (0, 0, 0.00000000000000000000e+000) (0, 0, 0.00000000000000000000e+000) (0, 0, 0.00000000000000000000e+000) (0, 0, 0.00000000000000000000e+000) (0, 0, 0.00000000000000000000e+000) (0, 0, 0.00000000000000000000e+000) (0, 0, 0.00000000000000000000e+000) (0, 0, 0.00000000000000000000e+000) (0, 0, 0.00000000000000000000e+000) (0, 0, 0.00000000000000000000e+000) (0, 0, 0.00000000000000000000e+000) (0, 0, 0.00000000000000000000e+000) (0, 0, 0.00000000000000000000e+000) (0, 0, 0.00000000000000000000e+000) (0, 0, 0.00000000000000000000e+000) (0, 0, 0.00000000000000000000e+000) (0, 0, 0.00000000000000000000e+000) (0, 0, 0.00000000000000000000e+000) (0, 0, 0.00000000000000000000e+000) (0, 0, 0.00000000000000000000e+000) (0, 0, 0.00000000000000000000e+000) (0, 0, 0.00000000000000000000e+000) (0, 0, 0.00000000000000000000e+000) (0, 0, 0.00000000000000000000e+000) (0, 0, 0.00000000000000000000e+000) (0, 0, 0.00000000000000000000e+000) (0, 0, 0.00000000000000000000e+000) (0, 0, 0.00000000000000000000e+000) (0, 0, 0.00000000000000000000e+000) (0, 0, 0.00000000000000000000e+000) (0, 0, 0.00000000000000000000e+000) (0, 0, 0.00000000000000000000e+000) (0, 0, 0.00000000000000000000e+000) (0, 0, 0.00000000000000000000e+000) (0, 0, 0.00000000000000000000e+000) (0, 0, 0.00000000000000000000e+000) (0, 0, 0.00000000000000000000e+000) (0, 0, 0.00000000000000000000e+000) (0, 0, 0.00000000000000000000e+000) (0, 0, 0.00000000000000000000e+000) (0, 0, 0.00000000000000000000e+000) (0, 0, 0.00000000000000000000e+000) (0, 0, 0.00000000000000000000e+000) (0, 0, 0.00000000000000000000e+000) (0, 0, 0.00000000000000000000e+000) (0, 0, 0.00000000000000000000e+000) (0, 0, 0.00000000000000000000e+000) (0, 0, 0.00000000000000000000e+000) (0, 0, 0.00000000000000000000e+000) (0, 0, 0.00000000000000000000e+000) (0, 0, 0.00000000000000000000e+000) (0, 0, 0.00000000000000000000e+000) (0, 0, 0.00000000000000000000e+000) (0, 0, 0.00000000000000000000e+000) (0, 0, 0.00000000000000000000e+000) (0, 0, 0.00000000000000000000e+000) (0, 0, 0.00000000000000000000e+000) (0, 0, 0.00000000000000000000e+000) (65, 5, 5.00000000000000000000e-001) (65, 5, 5.00000000000000000000e-001) (65, 5, 5.00000000000000000000e-001) (65, 5, 5.00000000000000000000e-001) (65, 5, 5.00000000000000000000e-001) (65, 5, 5.00000000000000000000e-001) (65, 5, 5.00000000000000000000e-001) (65, 5, 5.00000000000000000000e-001) (65, 5, 5.00000000000000000000e-001) (65, 5, 5.00000000000000000000e-001) (65, 5, 5.00000000000000000000e-001) (65, 5, 5.00000000000000000000e-001) (65, 5, 5.00000000000000000000e-001) (65, 5, 5.00000000000000000000e-001) (65, 5, 5.00000000000000000000e-001) (65, 5, 5.00000000000000000000e-001) (65, 5, 5.00000000000000000000e-001) (65, 5, 5.00000000000000000000e-001) (65, 5, 5.00000000000000000000e-001) (65, 5, 5.00000000000000000000e-001) (65, 5, 5.00000000000000000000e-001) (65, 5, 5.00000000000000000000e-001) (65, 5, 5.00000000000000000000e-001) (65, 5, 5.00000000000000000000e-001) (65, 5, 5.00000000000000000000e-001) (65, 5, 5.00000000000000000000e-001) (65, 5, 5.00000000000000000000e-001) (65, 5, 5.00000000000000000000e-001) (65, 5, 5.00000000000000000000e-001) (65, 5, 5.00000000000000000000e-001) (65, 5, 5.00000000000000000000e-001) (65, 5, 5.00000000000000000000e-001) (65, 5, 5.00000000000000000000e-001) (65, 5, 5.00000000000000000000e-001) (65, 5, 5.00000000000000000000e-001) (65, 5, 5.00000000000000000000e-001) (65, 5, 5.00000000000000000000e-001) (65, 5, 5.00000000000000000000e-001) (65, 5, 5.00000000000000000000e-001) (65, 5, 5.00000000000000000000e-001) (65, 5, 5.00000000000000000000e-001) (65, 5, 5.00000000000000000000e-001) (65, 5, 5.00000000000000000000e-001) (65, 5, 5.00000000000000000000e-001) (65, 5, 5.00000000000000000000e-001) (65, 5, 5.00000000000000000000e-001) (65, 5, 5.00000000000000000000e-001) (65, 5, 5.00000000000000000000e-001) (65, 5, 5.00000000000000000000e-001) (65, 5, 5.00000000000000000000e-001) (65, 5, 5.00000000000000000000e-001) (65, 5, 5.00000000000000000000e-001) (65, 5, 5.00000000000000000000e-001) (65, 5, 5.00000000000000000000e-001) (65, 5, 5.00000000000000000000e-001) (65, 5, 5.00000000000000000000e-001) (65, 5, 5.00000000000000000000e-001) (65, 5, 5.00000000000000000000e-001) (65, 5, 5.00000000000000000000e-001) (65, 5, 5.00000000000000000000e-001) (65, 5, 5.00000000000000000000e-001) (65, 5, 5.00000000000000000000e-001) (65, 5, 5.00000000000000000000e-001) (65, 5, 5.00000000000000000000e-001) (65, 5, 5.00000000000000000000e-001) (65, 5, 5.00000000000000000000e-001) (65, 5, 5.00000000000000000000e-001) (65, 5, 5.00000000000000000000e-001) (65, 5, 5.00000000000000000000e-001) (65, 5, 5.00000000000000000000e-001) (65, 5, 5.00000000000000000000e-001) (65, 5, 5.00000000000000000000e-001) (65, 5, 5.00000000000000000000e-001) (65, 5, 5.00000000000000000000e-001) (65, 5, 5.00000000000000000000e-001) (65, 5, 5.00000000000000000000e-001) (65, 5, 5.00000000000000000000e-001) (65, 5, 5.00000000000000000000e-001) (65, 5, 5.00000000000000000000e-001) (65, 5, 5.00000000000000000000e-001) (65, 5, 5.00000000000000000000e-001) (65, 5, 5.00000000000000000000e-001) (65, 5, 5.00000000000000000000e-001) (65, 5, 5.00000000000000000000e-001) (65, 5, 5.00000000000000000000e-001) (65, 5, 5.00000000000000000000e-001) (65, 5, 5.00000000000000000000e-001) (65, 5, 5.00000000000000000000e-001) (65, 5, 5.00000000000000000000e-001) (65, 5, 5.00000000000000000000e-001) (65, 5, 5.00000000000000000000e-001) (65, 5, 5.00000000000000000000e-001) (65, 5, 5.00000000000000000000e-001) (65, 5, 5.00000000000000000000e-001) (65, 5, 5.00000000000000000000e-001) (65, 5, 5.00000000000000000000e-001) (65, 5, 5.00000000000000000000e-001) (65, 5, 5.00000000000000000000e-001) (65, 5, 5.00000000000000000000e-001) (65, 5, 5.00000000000000000000e-001) (65, 5, 5.00000000000000000000e-001) (65, 5, 5.00000000000000000000e-001) (65, 5, 5.00000000000000000000e-001) (65, 5, 5.00000000000000000000e-001) (65, 5, 5.00000000000000000000e-001) (65, 5, 5.00000000000000000000e-001) (65, 5, 5.00000000000000000000e-001) (65, 5, 5.00000000000000000000e-001) (65, 5, 5.00000000000000000000e-001) (65, 5, 5.00000000000000000000e-001) (65, 5, 5.00000000000000000000e-001) (65, 5, 5.00000000000000000000e-001) (65, 5, 5.00000000000000000000e-001) (65, 5, 5.00000000000000000000e-001) (65, 5, 5.00000000000000000000e-001) (65, 5, 5.00000000000000000000e-001) (65, 5, 5.00000000000000000000e-001) (65, 5, 5.00000000000000000000e-001) (65, 5, 5.00000000000000000000e-001) (65, 5, 5.00000000000000000000e-001) (65, 5, 5.00000000000000000000e-001) (65, 5, 5.00000000000000000000e-001) (65, 5, 5.00000000000000000000e-001) (65, 5, 5.00000000000000000000e-001) (65, 5, 5.00000000000000000000e-001) (65, 5, 5.00000000000000000000e-001) (65, 5, 5.00000000000000000000e-001) (65, 5, 5.00000000000000000000e-001) (0, 0, 0.00000000000000000000e+000) (129, 5, 5.00000000000000000000e-001) (129, 5, 5.00000000000000000000e-001) (129, 5, 5.00000000000000000000e-001) (129, 5, 5.00000000000000000000e-001) (129, 5, 5.00000000000000000000e-001) (129, 5, 5.00000000000000000000e-001) (129, 5, 5.00000000000000000000e-001) (129, 5, 5.00000000000000000000e-001) (129, 5, 5.00000000000000000000e-001) (129, 5, 5.00000000000000000000e-001) (129, 5, 5.00000000000000000000e-001) (129, 5, 5.00000000000000000000e-001) (129, 5, 5.00000000000000000000e-001) (129, 5, 5.00000000000000000000e-001) (129, 5, 5.00000000000000000000e-001) (129, 5, 5.00000000000000000000e-001) (129, 5, 5.00000000000000000000e-001) (129, 5, 5.00000000000000000000e-001) (129, 5, 5.00000000000000000000e-001) (129, 5, 5.00000000000000000000e-001) (129, 5, 5.00000000000000000000e-001) (129, 5, 5.00000000000000000000e-001) (129, 5, 5.00000000000000000000e-001) (129, 5, 5.00000000000000000000e-001) (129, 5, 5.00000000000000000000e-001) (129, 5, 5.00000000000000000000e-001) (129, 5, 5.00000000000000000000e-001) (129, 5, 5.00000000000000000000e-001) (129, 5, 5.00000000000000000000e-001) (129, 5, 5.00000000000000000000e-001) (129, 5, 5.00000000000000000000e-001) (129, 5, 5.00000000000000000000e-001) (129, 5, 5.00000000000000000000e-001) (129, 5, 5.00000000000000000000e-001) (129, 5, 5.00000000000000000000e-001) (129, 5, 5.00000000000000000000e-001) (129, 5, 5.00000000000000000000e-001) (129, 5, 5.00000000000000000000e-001) (129, 5, 5.00000000000000000000e-001) (129, 5, 5.00000000000000000000e-001) (129, 5, 5.00000000000000000000e-001) (129, 5, 5.00000000000000000000e-001) (129, 5, 5.00000000000000000000e-001) (129, 5, 5.00000000000000000000e-001) (129, 5, 5.00000000000000000000e-001) (129, 5, 5.00000000000000000000e-001) (129, 5, 5.00000000000000000000e-001) (129, 5, 5.00000000000000000000e-001) (129, 5, 5.00000000000000000000e-001) (129, 5, 5.00000000000000000000e-001) (129, 5, 5.00000000000000000000e-001) (129, 5, 5.00000000000000000000e-001) (129, 5, 5.00000000000000000000e-001) (129, 5, 5.00000000000000000000e-001) (129, 5, 5.00000000000000000000e-001) (129, 5, 5.00000000000000000000e-001) (129, 5, 5.00000000000000000000e-001) (129, 5, 5.00000000000000000000e-001) (129, 5, 5.00000000000000000000e-001) (129, 5, 5.00000000000000000000e-001) (129, 5, 5.00000000000000000000e-001) (129, 5, 5.00000000000000000000e-001) (129, 5, 5.00000000000000000000e-001) (129, 5, 5.00000000000000000000e-001) (129, 5, 5.00000000000000000000e-001) (129, 5, 5.00000000000000000000e-001) (129, 5, 5.00000000000000000000e-001) (129, 5, 5.00000000000000000000e-001) (129, 5, 5.00000000000000000000e-001) (129, 5, 5.00000000000000000000e-001) (129, 5, 5.00000000000000000000e-001) (129, 5, 5.00000000000000000000e-001) (129, 5, 5.00000000000000000000e-001) (129, 5, 5.00000000000000000000e-001) (129, 5, 5.00000000000000000000e-001) (129, 5, 5.00000000000000000000e-001) (129, 5, 5.00000000000000000000e-001) (129, 5, 5.00000000000000000000e-001) (129, 5, 5.00000000000000000000e-001) (129, 5, 5.00000000000000000000e-001) (129, 5, 5.00000000000000000000e-001) (129, 5, 5.00000000000000000000e-001) (129, 5, 5.00000000000000000000e-001) (129, 5, 5.00000000000000000000e-001) (129, 5, 5.00000000000000000000e-001) (129, 5, 5.00000000000000000000e-001) (129, 5, 5.00000000000000000000e-001) (129, 5, 5.00000000000000000000e-001) (129, 5, 5.00000000000000000000e-001) (129, 5, 5.00000000000000000000e-001) (129, 5, 5.00000000000000000000e-001) (129, 5, 5.00000000000000000000e-001) (129, 5, 5.00000000000000000000e-001) (129, 5, 5.00000000000000000000e-001) (129, 5, 5.00000000000000000000e-001) (129, 5, 5.00000000000000000000e-001) (129, 5, 5.00000000000000000000e-001) (129, 5, 5.00000000000000000000e-001) (129, 5, 5.00000000000000000000e-001) (129, 5, 5.00000000000000000000e-001) (129, 5, 5.00000000000000000000e-001) (129, 5, 5.00000000000000000000e-001) (129, 5, 5.00000000000000000000e-001) (129, 5, 5.00000000000000000000e-001) (129, 5, 5.00000000000000000000e-001) (129, 5, 5.00000000000000000000e-001) (129, 5, 5.00000000000000000000e-001) (129, 5, 5.00000000000000000000e-001) (129, 5, 5.00000000000000000000e-001) (129, 5, 5.00000000000000000000e-001) (129, 5, 5.00000000000000000000e-001) (129, 5, 5.00000000000000000000e-001) (129, 5, 5.00000000000000000000e-001) (129, 5, 5.00000000000000000000e-001) (129, 5, 5.00000000000000000000e-001) (129, 5, 5.00000000000000000000e-001) (129, 5, 5.00000000000000000000e-001) (129, 5, 5.00000000000000000000e-001) (129, 5, 5.00000000000000000000e-001) (129, 5, 5.00000000000000000000e-001) (129, 5, 5.00000000000000000000e-001) (129, 5, 5.00000000000000000000e-001) (129, 5, 5.00000000000000000000e-001) (129, 5, 5.00000000000000000000e-001) (129, 5, 5.00000000000000000000e-001) (129, 5, 5.00000000000000000000e-001) (129, 5, 5.00000000000000000000e-001) (129, 5, 5.00000000000000000000e-001) (0, 0, 0.00000000000000000000e+000) (129, 5, 5.00000000000000000000e-001) (0, 0, 0.00000000000000000000e+000) 
connections (connected_to_neuron, weight)=(0, 8.63205671310424800000e-001) (1, 2.36375808715820310000e+000) (2, -4.62053120136260990000e-001) (3, 8.81440222263336180000e-001) (4, 1.31378424167633060000e+000) (5, 2.40858030319213870000e+000) (6, 2.19840288162231450000e+000) (7, 6.12366199493408200000e+000) (8, 2.61759734153747560000e+000) (9, 7.96483278274536130000e-001) (10, 6.66555464267730710000e-001) (11, 8.89806449413299560000e-001) (12, 4.68797594308853150000e-001) (13, 2.81227886676788330000e-001) (14, 5.84314525127410890000e-001) (15, 1.37698900699615480000e+000) (16, -4.35757756233215330000e-001) (17, 1.75722569227218630000e-001) (18, -2.89354659616947170000e-002) (19, 7.15755224227905270000e-002) (20, 5.82427084445953370000e-001) (21, 3.45838703215122220000e-002) (22, -1.07171401381492610000e-001) (23, -8.30959975719451900000e-001) (24, -1.24756956100463870000e+000) (25, -1.20477378368377690000e+000) (26, 1.37236833572387700000e-001) (27, 9.77817296981811520000e-001) (28, 1.96760743856430050000e-001) (29, -1.17099680006504060000e-001) (30, -7.36906975507736210000e-002) (31, -5.55953860282897950000e-001) (32, -3.16232323646545410000e+000) (33, 7.69374132156372070000e-001) (34, 4.64124590158462520000e-001) (35, 5.35762846469879150000e-001) (36, -5.41767001152038570000e-001) (37, -1.29684543609619140000e+000) (38, 1.42522549629211430000e+000) (39, 4.83131885528564450000e-001) (40, -2.34688496589660640000e+000) (41, 2.06811532378196720000e-001) (42, 1.22643661499023440000e+000) (43, 1.44149765372276310000e-001) (44, -3.06290984153747560000e+000) (45, 9.06413674354553220000e-001) (46, -2.50232815742492680000e-001) (47, -5.67133843898773190000e-001) (48, 8.05135786533355710000e-001) (49, -2.79650799930095670000e-002) (50, -4.22873288393020630000e-001) (51, 1.94926035404205320000e+000) (52, -4.65648353099823000000e-001) (53, 9.90934431552886960000e-001) (54, 6.56836450099945070000e-001) (55, -8.55715990066528320000e-001) (56, 5.79817867279052730000e+000) (57, -4.88913440704345700000e+000) (58, -1.70538890361785890000e+000) (59, -4.68529552221298220000e-001) (60, -8.53794626891613010000e-003) (61, 1.46861955523490910000e-001) (62, 6.32451415061950680000e-001) (63, 6.43756538629531860000e-002) (64, -3.40752154588699340000e-001) (0, 1.02889444679021840000e-002) (1, 4.94678467512130740000e-002) (2, 2.32232034206390380000e-001) (3, 5.92711567878723140000e-001) (4, 3.44438767433166500000e+000) (5, 3.99350702762603760000e-001) (6, 1.71595072746276860000e+000) (7, 9.53805148601531980000e-001) (8, 2.09564715623855590000e-001) (9, 3.45550745725631710000e-001) (10, 1.01992018520832060000e-001) (11, 4.32113856077194210000e-001) (12, 5.56598007678985600000e-001) (13, 5.30385792255401610000e-001) (14, 1.14523971080780030000e+000) (15, 4.96772557497024540000e-001) (16, -2.33941960334777830000e+000) (17, 9.54656302928924560000e-001) (18, 8.85707233101129530000e-003) (19, 1.28979408740997310000e+000) (20, 1.93331733345985410000e-001) (21, 6.80024147033691410000e-001) (22, 1.30221009254455570000e+000) (23, 1.27645909786224370000e+000) (24, 1.86984106898307800000e-001) (25, -5.82376122474670410000e-001) (26, 7.69860073924064640000e-002) (27, 1.13536357879638670000e+000) (28, 3.44147235155105590000e-001) (29, 2.77600318193435670000e-001) (30, 1.38458877801895140000e-001) (31, 6.35539144277572630000e-002) (32, -9.96471848338842390000e-003) (33, 1.40548855066299440000e-001) (34, 5.58402240276336670000e-001) (35, 1.18092417716979980000e+000) (36, 1.34325787425041200000e-001) (37, 1.93897500634193420000e-001) (38, 2.84211218357086180000e-001) (39, -6.11781954765319820000e-001) (40, 7.88127258419990540000e-002) (41, 2.56049364805221560000e-001) (42, 2.12042164802551270000e+000) (43, 3.11193138360977170000e-001) (44, -2.36653611063957210000e-001) (45, 1.29819944500923160000e-001) (46, 7.38433599472045900000e-001) (47, 4.89689648151397710000e-001) (48, -1.69259274005889890000e+000) (49, -1.78873643279075620000e-001) (50, 1.22665487229824070000e-001) (51, 5.92423141002655030000e-001) (52, -2.61656761169433590000e-001) (53, 5.93397259712219240000e-001) (54, -6.46193549036979680000e-002) (55, 6.29345476627349850000e-001) (56, -8.45182985067367550000e-002) (57, -8.86580765247344970000e-001) (58, -4.24132496118545530000e-002) (59, 4.15623188018798830000e-003) (60, 1.08452851418405770000e-003) (61, 4.08527523279190060000e-001) (62, 4.40877169370651250000e-001) (63, 9.06699597835540770000e-002) (64, 2.62575775384902950000e-001) (0, -4.83610212802886960000e-001) (1, -1.02559119462966920000e-001) (2, 5.11310636997222900000e-001) (3, -1.04495179653167720000e+000) (4, -2.61153727769851680000e-001) (5, 9.32632744312286380000e-001) (6, 9.96282458305358890000e-001) (7, 8.68290483951568600000e-001) (8, 1.29176330566406250000e+000) (9, 1.32389140129089360000e+000) (10, 5.23776113986968990000e-001) (11, -1.41487646102905270000e+000) (12, -2.67446368932724000000e-001) (13, -1.07497680187225340000e+000) (14, 1.28807640075683590000e+000) (15, 1.55695545673370360000e+000) (16, -2.06545621156692500000e-001) (17, -1.22139789164066310000e-001) (18, -8.85192930698394780000e-001) (19, 4.73980569839477540000e+000) (20, 5.66196441650390630000e-001) (21, -1.17553710937500000000e+000) (22, -3.10981959104537960000e-001) (23, 8.46504390239715580000e-001) (24, -3.57270389795303340000e-001) (25, -2.27233195304870610000e+000) (26, -3.92205208539962770000e-001) (27, -5.20589292049407960000e-001) (28, 7.58674681186676030000e-001) (29, -7.55204260349273680000e-001) (30, 1.19696922600269320000e-001) (31, -1.68469750881195070000e+000) (32, -1.79478242993354800000e-001) (33, 7.65203893184661870000e-001) (34, -1.04458287358284000000e-001) (35, -1.87544584274291990000e-001) (36, 5.77192485332489010000e-001) (37, -2.46910318732261660000e-001) (38, 3.82990717887878420000e-001) (39, 1.81789070367813110000e-001) (40, -1.60345852375030520000e+000) (41, -2.28499144315719600000e-001) (42, 2.22836062312126160000e-001) (43, 5.90425312519073490000e-001) (44, -1.13564300537109370000e+000) (45, -1.51994064450263980000e-001) (46, -1.47832310199737550000e+000) (47, -3.92141908407211300000e-001) (48, -2.80477404594421390000e-001) (49, -7.56582736968994140000e-001) (50, 8.71564328670501710000e-001) (51, -8.86695459485054020000e-002) (52, -3.90606552362442020000e-001) (53, -9.33398902416229250000e-002) (54, 2.45459270477294920000e+000) (55, -4.56965982913970950000e-001) (56, 2.55132460594177250000e+000) (57, -2.94708609580993650000e+000) (58, -1.82350540161132810000e+000) (59, 3.09195190668106080000e-001) (60, -8.81522417068481450000e-001) (61, 7.44440630078315730000e-002) (62, -6.26273572444915770000e-001) (63, -5.75744032859802250000e-001) (64, 9.25676226615905760000e-001) (0, 6.30728900432586670000e-002) (1, 4.20076102018356320000e-001) (2, -4.16618227958679200000e-001) (3, -6.70869946479797360000e-001) (4, -3.27376812696456910000e-001) (5, -8.74705240130424500000e-002) (6, 6.54294118285179140000e-002) (7, -3.50809514522552490000e-001) (8, -3.69659543037414550000e-001) (9, -6.02574087679386140000e-003) (10, -2.41017639636993410000e-002) (11, -3.02574131637811660000e-002) (12, 1.98610216379165650000e-001) (13, 3.02872091531753540000e-001) (14, -1.94772500544786450000e-002) (15, -3.93855541944503780000e-001) (16, 2.19546809792518620000e-001) (17, -5.36690115928649900000e-001) (18, 3.43679994344711300000e-001) (19, -1.85297563672065730000e-001) (20, 6.34063363075256350000e-001) (21, -2.53214463591575620000e-002) (22, -1.63960590958595280000e-001) (23, -1.45298361778259280000e-001) (24, 2.52088397741317750000e-001) (25, 1.10703623294830320000e+000) (26, 5.91883003711700440000e-001) (27, 4.93322819471359250000e-001) (28, 9.79782268404960630000e-002) (29, 3.87175351381301880000e-001) (30, -1.38751760125160220000e-001) (31, 7.70615279674530030000e-001) (32, 7.22948133945465090000e-001) (33, 3.61850053071975710000e-001) (34, -5.35976253449916840000e-002) (35, -9.53388810157775880000e-002) (36, 3.79469692707061770000e-001) (37, 8.95609378814697270000e-001) (38, -2.21390888094902040000e-001) (39, 6.28615915775299070000e-001) (40, 1.56228244304656980000e+000) (41, 2.57796287536621090000e-001) (42, -7.36386418342590330000e-001) (43, 3.45332354307174680000e-001) (44, 8.44086229801177980000e-001) (45, 9.46321114897727970000e-002) (46, 8.74225080013275150000e-001) (47, 1.04625368118286130000e+000) (48, -1.41547888517379760000e-001) (49, 4.54344987869262700000e-001) (50, 2.38905958831310270000e-002) (51, 1.13590165972709660000e-001) (52, 1.93996399641036990000e-001) (53, 1.87709286808967590000e-001) (54, -1.30865711253136400000e-003) (55, -3.14981043338775630000e-002) (56, -2.34583672136068340000e-002) (57, 6.60223901271820070000e-001) (58, 1.20470225811004640000e+000) (59, 2.00717851519584660000e-001) (60, 1.29992902278900150000e-001) (61, -1.02568972110748290000e+000) (62, -1.00010371208190920000e+000) (63, -1.99405193328857420000e-001) (64, -4.83673125505447390000e-001) (0, 1.85613244771957400000e-001) (1, -8.62846802920103070000e-003) (2, 4.17563587427139280000e-001) (3, 1.63560223579406740000e+000) (4, 2.78501200675964360000e+000) (5, 1.78054738044738770000e+000) (6, 2.82949209213256840000e+000) (7, 1.06612598896026610000e+000) (8, 4.50522422790527340000e-001) (9, 1.02487489581108090000e-001) (10, 1.33397176861763000000e-001) (11, -1.82202607393264770000e-001) (12, 3.87260466814041140000e-001) (13, 2.96132624149322510000e-001) (14, 2.03310513496398930000e+000) (15, 2.38977998495101930000e-001) (16, -1.22529163956642150000e-001) (17, 9.30741786956787110000e-001) (18, -1.05206832289695740000e-001) (19, 2.82783913612365720000e+000) (20, 2.66008883714675900000e-001) (21, 9.12829995155334470000e-001) (22, 1.26792824268341060000e+000) (23, 3.61639350652694700000e-001) (24, -1.58326119184494020000e-001) (25, -6.99718892574310300000e-001) (26, 7.15901970863342290000e-001) (27, 3.15954715013504030000e-001) (28, 1.83671146631240840000e-001) (29, 2.84430861473083500000e-001) (30, 1.24373510479927060000e-001) (31, -4.67149305343627930000e+000) (32, -1.05216108262538910000e-001) (33, 2.82218623906373980000e-002) (34, 4.50190216302871700000e-001) (35, 1.37641036510467530000e+000) (36, 3.37850823998451230000e-002) (37, 3.60194474458694460000e-001) (38, 8.26154768466949460000e-001) (39, 1.34780779480934140000e-001) (40, -2.43902187794446950000e-002) (41, 1.91452771425247190000e-001) (42, 2.22875022888183590000e+000) (43, 7.31414882466197010000e-003) (44, 4.72454987466335300000e-002) (45, 2.59138673543930050000e-001) (46, 1.56789410114288330000e+000) (47, 2.48484686017036440000e-001) (48, -2.60185074806213380000e+000) (49, 1.80364340543746950000e-001) (50, -1.56675755977630620000e-001) (51, 1.41882807016372680000e-001) (52, -1.14076435565948490000e-001) (53, 6.31930530071258540000e-001) (54, -1.65688749402761460000e-002) (55, 2.52757161855697630000e-001) (56, 2.50763595104217530000e-001) (57, 1.35479971766471860000e-001) (58, -5.95500528812408450000e-001) (59, 1.92532792687416080000e-001) (60, 8.65410417318344120000e-002) (61, 7.52858102321624760000e-001) (62, 3.07713651657104490000e+000) (63, -3.25958058238029480000e-002) (64, -7.27689743041992190000e-001) (0, 4.20860558748245240000e-001) (1, 3.16734582185745240000e-001) (2, 2.94636845588684080000e-001) (3, 2.59237766265869140000e+000) (4, 1.66430015563964840000e+001) (5, 1.22813522815704350000e+000) (6, 6.08152925968170170000e-001) (7, 7.14548647403717040000e-001) (8, 3.30676913261413570000e-001) (9, 1.63330346345901490000e-001) (10, 1.74161970615386960000e-001) (11, 2.00569778680801390000e-001) (12, 5.29797554016113280000e-001) (13, 2.60562360286712650000e-001) (14, 1.26549318432807920000e-001) (15, 3.34083378314971920000e-001) (16, 9.58455324172973630000e-001) (17, 1.01079761981964110000e+000) (18, -3.05870413780212400000e-001) (19, 1.89579570293426510000e+000) (20, 3.17548960447311400000e-001) (21, 7.42065668106079100000e-001) (22, 1.01203000545501710000e+000) (23, -5.26995472609996800000e-002) (24, 2.17521652579307560000e-001) (25, -5.01423895359039310000e-001) (26, -2.52247154712677000000e-001) (27, 5.07643461227416990000e-001) (28, 7.75756463408470150000e-002) (29, -1.24021954834461210000e-001) (30, 2.64615774154663090000e-001) (31, 1.40503123402595520000e-001) (32, 1.40862911939620970000e-002) (33, -2.86700546741485600000e-001) (34, 7.19542443752288820000e-001) (35, 1.28002095222473140000e+000) (36, 1.17133930325508120000e-001) (37, -7.44464844465255740000e-002) (38, 8.00120413303375240000e-001) (39, 2.90667176246643070000e-001) (40, -1.84454917907714840000e-001) (41, 1.23087033629417420000e-001) (42, 1.85848104953765870000e+000) (43, 1.83603540062904360000e-001) (44, -3.49353700876235960000e-001) (45, 2.73182302713394170000e-001) (46, 6.52018249034881590000e-001) (47, 8.05771350860595700000e-001) (48, 1.53909876942634580000e-001) (49, -2.91669033467769620000e-002) (50, 3.52090984582901000000e-001) (51, 1.99994578957557680000e-001) (52, 2.36706435680389400000e-001) (53, 6.19267404079437260000e-001) (54, 1.08490422368049620000e-001) (55, 6.12360239028930660000e-001) (56, 5.50210285186767580000e+000) (57, -4.39421236515045170000e-001) (58, -3.79021689295768740000e-002) (59, 1.57448142766952510000e-001) (60, -1.25490967184305190000e-002) (61, 3.98109197616577150000e-001) (62, 8.09811305999755860000e+000) (63, 6.92601323127746580000e-001) (64, 1.95579022169113160000e-001) (0, 2.39340066909790040000e+000) (1, 1.87614321708679200000e+000) (2, 2.31116294860839840000e+000) (3, 6.40214562416076660000e-001) (4, 2.64854103326797490000e-001) (5, 6.52373015880584720000e-001) (6, 1.55362531542778020000e-001) (7, 1.54740357398986820000e+000) (8, 1.68273890018463130000e+000) (9, 2.35344982147216800000e+000) (10, 1.37102997303009030000e+000) (11, -2.51190423965454100000e-001) (12, 9.67857360839843750000e-001) (13, -1.60853385925292970000e+000) (14, 1.56672489643096920000e+000) (15, -1.98434901237487790000e+000) (16, -1.27684581279754640000e+000) (17, 2.30977788567543030000e-001) (18, 1.92368197441101070000e+000) (19, 2.72789716720581050000e-001) (20, -3.08588075637817380000e+000) (21, 9.70216035842895510000e-001) (22, 5.32534539699554440000e-001) (23, 8.28062415122985840000e-001) (24, 1.36201941967010500000e+000) (25, 1.76154956221580510000e-001) (26, 4.17258322238922120000e-001) (27, 1.33655750751495360000e+000) (28, 7.34140336513519290000e-001) (29, 3.26069831848144530000e-001) (30, 2.78233349323272710000e-001) (31, 1.23468053340911870000e+000) (32, 1.06960499286651610000e+000) (33, -5.47176218032836910000e+000) (34, 1.86939799785614010000e+000) (35, 6.65839314460754390000e-001) (36, 1.12124180793762210000e+000) (37, 6.35702162981033330000e-002) (38, 6.94290399551391600000e-002) (39, 6.10542416572570800000e-001) (40, 5.05830240249633790000e+000) (41, 1.13530361652374270000e+000) (42, 1.50907650589942930000e-001) (43, 1.27881693840026860000e+000) (44, 1.34752535820007320000e+000) (45, -1.59680485725402830000e-001) (46, -1.25300097465515140000e+000) (47, -1.46704757213592530000e+000) (48, 5.03161716461181640000e+000) (49, 6.66561901569366460000e-001) (50, 1.32604315876960750000e-002) (51, 7.19740569591522220000e-001) (52, 2.53323674201965330000e+000) (53, 3.72712552547454830000e-001) (54, -6.11804246902465820000e-001) (55, 6.00233137607574460000e-001) (56, 5.70276856422424320000e-001) (57, 2.12810784578323360000e-001) (58, 1.05288136005401610000e+000) (59, 2.10140895843505860000e+000) (60, 2.10217094421386720000e+000) (61, 1.85242548584938050000e-001) (62, -4.45663034915924070000e-001) (63, 3.06649953126907350000e-001) (64, 4.60808724164962770000e-001) (0, -8.35670009255409240000e-002) (1, 1.64646685123443600000e-001) (2, -4.72447156906127930000e-001) (3, -2.39796876907348630000e-001) (4, -2.34325274825096130000e-001) (5, 5.66002786159515380000e-001) (6, -3.10140490531921390000e-001) (7, -2.43868684768676760000e+000) (8, -5.32286405563354490000e-001) (9, 2.45324611663818360000e-001) (10, 1.02707333862781520000e-001) (11, -9.24124419689178470000e-002) (12, 4.02189940214157100000e-002) (13, 7.66892656683921810000e-002) (14, 1.33951798081398010000e-001) (15, 8.18640589714050290000e-002) (16, 4.97193276882171630000e-001) (17, -7.50554442405700680000e-001) (18, 2.35463768243789670000e-001) (19, -2.71803826093673710000e-001) (20, 2.84992516040802000000e-001) (21, -1.23755700886249540000e-001) (22, -7.43561908602714540000e-002) (23, 7.00183734297752380000e-002) (24, 4.34542298316955570000e-001) (25, 2.99851059913635250000e-001) (26, 2.27653935551643370000e-001) (27, 1.04306340217590330000e-001) (28, 9.87580344080924990000e-002) (29, 4.11446183919906620000e-001) (30, 5.43926715850830080000e-001) (31, 1.17279911041259770000e+000) (32, 7.31301605701446530000e-001) (33, 4.80592429637908940000e-001) (34, -6.31953030824661250000e-002) (35, -3.24406534433364870000e-001) (36, 4.39729899168014530000e-001) (37, 6.86146318912506100000e-001) (38, -9.88224446773529050000e-002) (39, 2.33664333820343020000e-001) (40, 1.52947306632995610000e+000) (41, 2.85994470119476320000e-001) (42, -1.02823078632354740000e+000) (43, 2.50545501708984380000e-001) (44, 1.82432770729064940000e-001) (45, 5.15495598316192630000e-001) (46, 8.31743717193603520000e-001) (47, 7.31404185295104980000e-001) (48, 2.48709663748741150000e-001) (49, 5.86715936660766600000e-001) (50, 8.78462344408035280000e-002) (51, -1.41412625089287760000e-002) (52, 7.04742521047592160000e-002) (53, -6.02251328527927400000e-002) (54, 5.70893809199333190000e-002) (55, -3.82293075323104860000e-001) (56, -3.63705605268478390000e-001) (57, 1.06806874275207520000e+000) (58, 4.08912152051925660000e-001) (59, 9.99399349093437190000e-002) (60, 2.64523267745971680000e-001) (61, 5.42890653014183040000e-002) (62, -2.73425638675689700000e-001) (63, 1.97208106517791750000e-001) (64, -3.94445002079010010000e-001) (0, 8.73844251036643980000e-002) (1, 3.96321803331375120000e-001) (2, -1.83486118912696840000e-002) (3, -5.54891228675842290000e-001) (4, -1.07904493808746340000e+000) (5, 5.61791062355041500000e-001) (6, 2.21403047442436220000e-001) (7, -1.03922091424465180000e-001) (8, -1.88622549176216130000e-001) (9, 1.87559828162193300000e-001) (10, 2.72665750235319140000e-002) (11, -1.42316088080406190000e-001) (12, 2.96130254864692690000e-002) (13, 2.37005263566970830000e-001) (14, 1.33352950215339660000e-001) (15, 1.25711550936102870000e-002) (16, 4.11075502634048460000e-001) (17, -7.48267590999603270000e-001) (18, -2.40616798400878910000e-002) (19, -2.53716051578521730000e-001) (20, 3.26566547155380250000e-001) (21, -1.93429708480834960000e-001) (22, 2.56812218576669690000e-002) (23, 7.08782896399497990000e-002) (24, 7.44465112686157230000e-001) (25, 1.08915865421295170000e+000) (26, 1.25296816229820250000e-001) (27, 3.63363355398178100000e-001) (28, 6.18186518549919130000e-002) (29, 6.19000375270843510000e-001) (30, 3.96131843328475950000e-001) (31, 1.27122223377227780000e+000) (32, 6.15625083446502690000e-001) (33, 8.99268388748168950000e-001) (34, -1.79772847332060340000e-003) (35, 5.33572994172573090000e-002) (36, 3.16756874322891240000e-001) (37, 7.93590784072875980000e-001) (38, -1.85539305210113530000e-001) (39, 5.67373931407928470000e-001) (40, 7.90634751319885250000e-001) (41, 3.27062219381332400000e-001) (42, -2.38423556089401250000e-001) (43, 2.21515342593193050000e-001) (44, 1.00911593437194820000e+000) (45, 4.70858573913574220000e-001) (46, 6.43653690814971920000e-001) (47, 5.66163837909698490000e-001) (48, -1.72512084245681760000e-001) (49, 7.62392580509185790000e-001) (50, -8.47849398851394650000e-002) (51, 4.71465699374675750000e-002) (52, 4.80822384357452390000e-001) (53, 7.71579325199127200000e-001) (54, 1.11208893358707430000e-001) (55, 7.35579356551170350000e-002) (56, -2.28468298912048340000e-001) (57, 2.11007714271545410000e-001) (58, 1.20846068859100340000e+000) (59, 2.48427346348762510000e-001) (60, 8.02267342805862430000e-002) (61, -2.73015033453702930000e-002) (62, -4.04508471488952640000e-001) (63, 7.94359222054481510000e-002) (64, -4.84242290258407590000e-001) (0, -5.51523119211196900000e-002) (1, 5.08564352989196780000e-001) (2, -3.55989605188369750000e-001) (3, -2.52658307552337650000e-001) (4, -6.03637576103210450000e-001) (5, 1.25697702169418330000e-001) (6, 1.85774683952331540000e-001) (7, 1.14357769489288330000e-001) (8, -3.20177115499973300000e-002) (9, 3.44270259141922000000e-001) (10, 1.46602913737297060000e-001) (11, -1.52791634202003480000e-001) (12, -1.40984028577804570000e-001) (13, -5.51115209236741070000e-003) (14, -5.44451400637626650000e-002) (15, -3.42700816690921780000e-002) (16, 3.26074570417404170000e-001) (17, -4.75866720080375670000e-002) (18, 3.51364105939865110000e-001) (19, -3.28140974044799800000e-001) (20, 4.30632174015045170000e-001) (21, 8.27480927109718320000e-002) (22, 5.18889248371124270000e-001) (23, 3.84811349213123320000e-002) (24, 4.34118866920471190000e-001) (25, 1.07561123371124270000e+000) (26, 1.44963502883911130000e-001) (27, 3.18508625030517580000e-001) (28, 1.10410496592521670000e-001) (29, 7.66324922442436220000e-002) (30, 3.69520455598831180000e-001) (31, 4.00286465883255000000e-001) (32, 7.76905834674835210000e-001) (33, 7.58535265922546390000e-001) (34, -1.54437482357025150000e-001) (35, -1.79551273584365840000e-001) (36, 3.93114537000656130000e-001) (37, 3.95966112613677980000e-001) (38, -1.76537558436393740000e-001) (39, 8.42290401458740230000e-001) (40, 8.56543004512786870000e-001) (41, 3.19910258054733280000e-001) (42, -2.71715974807739260000e+000) (43, 1.18806958198547360000e-001) (44, 1.67893484234809880000e-001) (45, 1.03201782703399660000e+000) (46, 6.76267504692077640000e-001) (47, 7.30039894580841060000e-001) (48, 3.30158501863479610000e-001) (49, 5.84452867507934570000e-001) (50, 1.02365151047706600000e-001) (51, 7.62204974889755250000e-002) (52, 3.86084824800491330000e-001) (53, 1.09517626464366910000e-001) (54, 2.31183394789695740000e-001) (55, -4.33986857533454900000e-002) (56, 1.30345165729522710000e-001) (57, 7.20954596996307370000e-001) (58, 4.22690331935882570000e-001) (59, 2.13564231991767880000e-001) (60, 1.10169611871242520000e-001) (61, -5.51693677902221680000e-001) (62, -4.91278350353240970000e-001) (63, -3.82139265537261960000e-001) (64, 6.08980376273393630000e-003) (0, -1.20934903621673580000e-001) (1, 3.18831682205200200000e-001) (2, -1.24081820249557500000e-001) (3, -2.49780327081680300000e-001) (4, -5.79949200153350830000e-001) (5, 2.92609661817550660000e-001) (6, -2.80429601669311520000e-001) (7, -3.82139652967453000000e-001) (8, -1.30140975117683410000e-001) (9, -1.48358434438705440000e-001) (10, 2.76491135358810420000e-001) (11, -4.43604290485382080000e-002) (12, -4.33093681931495670000e-002) (13, 5.04279017448425290000e-001) (14, 7.52400457859039310000e-002) (15, -5.99660864099860190000e-003) (16, 2.10358187556266780000e-001) (17, -8.80938231945037840000e-001) (18, 3.95378202199935910000e-001) (19, -2.14189574122428890000e-001) (20, 4.40266281366348270000e-001) (21, -1.36756777763366700000e-001) (22, 1.45562514662742610000e-001) (23, 1.48038327693939210000e-001) (24, 7.20474123954772950000e-001) (25, 4.47121798992156980000e-001) (26, 1.98892131447792050000e-001) (27, 3.06431323289871220000e-001) (28, 2.17218726873397830000e-001) (29, 5.27529180049896240000e-001) (30, -3.27422469854354860000e-001) (31, 4.44619506597518920000e-001) (32, 7.25314736366271970000e-001) (33, 2.91571348905563350000e-001) (34, -7.30840042233467100000e-002) (35, -2.26106848567724230000e-002) (36, 3.37387502193450930000e-001) (37, 3.25771868228912350000e-001) (38, -4.63598132133483890000e-001) (39, 3.98450523614883420000e-001) (40, 1.13702845573425290000e+000) (41, 1.91368326544761660000e-001) (42, -1.62524104118347170000e+000) (43, 3.60346809029579160000e-002) (44, 7.92881667613983150000e-001) (45, 5.82575559616088870000e-001) (46, 4.19311434030532840000e-001) (47, 3.25185894966125490000e-001) (48, -2.91643198579549790000e-002) (49, 3.96221399307250980000e-001) (50, -6.95109949447214600000e-004) (51, 3.04802097380161290000e-002) (52, -2.39367783069610600000e-001) (53, 1.39360487461090090000e-001) (54, 1.75367712974548340000e-001) (55, -1.73189923167228700000e-001) (56, -6.85960650444030760000e-002) (57, 1.18513035774230960000e+000) (58, 4.38953042030334470000e-001) (59, -1.02602615952491760000e-001) (60, 3.15535068511962890000e-001) (61, -2.98654794692993160000e-001) (62, -2.89720982313156130000e-001) (63, 6.97639808058738710000e-002) (64, -4.41697895526885990000e-001) (0, 4.40207815170288090000e+000) (1, 9.17497158050537110000e+000) (2, -6.89380407333374020000e-001) (3, 5.99155366420745850000e-001) (4, 6.36804056167602540000e+000) (5, 2.66505050659179690000e+000) (6, 9.66939151287078860000e-001) (7, 5.42094707489013670000e-001) (8, -2.41404756903648380000e-001) (9, 1.78432524204254150000e+000) (10, 3.10020655393600460000e-001) (11, 1.86711192131042480000e+000) (12, 3.48918348550796510000e-001) (13, -3.52610915899276730000e-001) (14, 4.16483968496322630000e-001) (15, 1.92535376548767090000e+000) (16, -2.98366516828536990000e-001) (17, 3.32979679107666020000e-001) (18, -4.85677778720855710000e-001) (19, 2.55343079566955570000e-001) (20, -1.76796519756317140000e+000) (21, 1.11878089606761930000e-001) (22, 1.06263093650341030000e-001) (23, 3.06772947311401370000e-001) (24, -8.18978726863861080000e-001) (25, -4.48445272445678710000e+000) (26, 3.32196861505508420000e-001) (27, -3.61380159854888920000e-001) (28, -5.56513786315917970000e-001) (29, -7.45561998337507250000e-003) (30, 2.95898169279098510000e-001) (31, -3.76622653007507320000e+000) (32, -6.60327529907226560000e+000) (33, -1.72497451305389400000e+000) (34, 1.88149157911539080000e-002) (35, 3.59733343124389650000e-001) (36, 5.63462935388088230000e-002) (37, -1.87573850154876710000e+000) (38, 5.69438517093658450000e-001) (39, 3.00174146890640260000e-001) (40, -6.55578196048736570000e-001) (41, 5.74088454246521000000e-001) (42, 5.93700885772705080000e+000) (43, 6.82084739208221440000e-001) (44, -7.37392842769622800000e-001) (45, -1.20859913527965550000e-001) (46, -1.85494035482406620000e-001) (47, -6.14121496677398680000e-001) (48, -2.77818411588668820000e-001) (49, -1.12976789474487300000e+000) (50, 8.20283114910125730000e-001) (51, 4.63493168354034420000e-001) (52, 2.95819878578186040000e-001) (53, 2.16321319341659550000e-001) (54, -2.87727773189544680000e-001) (55, -1.54163575172424320000e+000) (56, -4.94340285658836360000e-002) (57, -1.77075636386871340000e+000) (58, -4.89373683929443360000e+000) (59, 1.62305310368537900000e-001) (60, -1.23708176612854000000e+000) (61, 1.02752164006233220000e-001) (62, 1.22087195515632630000e-001) (63, -9.92249369621276860000e-001) (64, -4.59223389625549320000e-001) (0, 8.99075996130704880000e-003) (1, 3.56436252593994140000e-001) (2, -4.38876003026962280000e-001) (3, -1.88698530197143550000e+000) (4, -2.23395895957946780000e+000) (5, -8.28741371631622310000e-001) (6, -2.66387313604354860000e-001) (7, -4.47623997926712040000e-001) (8, -4.18894231319427490000e-001) (9, 1.99139222502708440000e-001) (10, 9.08375009894371030000e-002) (11, 7.83865451812744140000e-002) (12, -8.31691995263099670000e-002) (13, 1.03805497288703920000e-001) (14, 7.48471170663833620000e-002) (15, -1.94902479648590090000e-001) (16, 3.89502614736557010000e-001) (17, -8.63152205944061280000e-001) (18, 3.09035569429397580000e-001) (19, -2.11504146456718440000e-001) (20, 3.32013607025146480000e-001) (21, -1.07993662357330320000e-001) (22, -2.67584037780761720000e+000) (23, 5.26011884212493900000e-001) (24, 4.49119061231613160000e-001) (25, 2.03102517127990720000e+000) (26, 2.26209282875061040000e-001) (27, 1.05691812932491300000e-001) (28, 1.21597938239574430000e-001) (29, 8.21495652198791500000e-002) (30, 2.71577477455139160000e-001) (31, 6.99215769767761230000e-001) (32, 1.32845354080200200000e+000) (33, 7.20591366291046140000e-001) (34, 1.26428544521331790000e-001) (35, -4.79996591806411740000e-001) (36, 2.33007892966270450000e-001) (37, 5.06143629550933840000e-001) (38, -6.83104753494262700000e-001) (39, 4.74387049674987790000e-001) (40, 1.45065510272979740000e+000) (41, 2.27911785244941710000e-001) (42, -3.31592607498168950000e+000) (43, 4.98916395008564000000e-002) (44, 8.91013324260711670000e-001) (45, 2.82571345567703250000e-001) (46, 5.94163656234741210000e-001) (47, 2.67898023128509520000e-001) (48, 3.10491621494293210000e-001) (49, 5.42319178581237790000e-001) (50, -2.25205749273300170000e-001) (51, -4.25890684127807620000e-002) (52, 2.91103869676589970000e-001) (53, 1.04312449693679810000e-001) (54, -8.67021381855010990000e-001) (55, 2.53118485212326050000e-001) (56, -5.71126006543636320000e-002) (57, 2.32215356826782230000e+000) (58, 1.10470104217529300000e+000) (59, 2.05478981137275700000e-001) (60, -6.53069555759429930000e-001) (61, -3.42604100704193120000e-001) (62, -4.76135730743408200000e-001) (63, -3.92091311514377590000e-002) (64, -4.61182236671447750000e-001) (0, -2.19475054740905760000e+000) (1, 7.89323002099990840000e-002) (2, 4.01490211486816410000e-001) (3, 9.03918147087097170000e-001) (4, 9.31493639945983890000e-001) (5, 4.60684984922409060000e-001) (6, 3.02825880050659180000e+000) (7, 9.53663468360900880000e-001) (8, -2.96047240495681760000e-001) (9, 3.73564690351486210000e-001) (10, -1.65443742275238040000e+000) (11, -1.74992997199296950000e-002) (12, 4.86829817295074460000e-001) (13, 1.36009454727172850000e+000) (14, 5.64586353302001950000e+000) (15, -2.43546843528747560000e-001) (16, 3.48906934261322020000e-001) (17, 1.98769664764404300000e+000) (18, 2.23593246191740040000e-002) (19, 1.35161352157592770000e+000) (20, 2.62322974205017090000e+000) (21, 7.81448423862457280000e-001) (22, 4.30493026971817020000e-001) (23, -9.22136723995208740000e-001) (24, 2.36408263444900510000e-001) (25, -2.90959119796752930000e-001) (26, -7.27383047342300420000e-002) (27, 1.06759238243103030000e+000) (28, 4.27582383155822750000e-001) (29, 5.64527153968811040000e-001) (30, 2.65484958887100220000e-001) (31, 2.35733598470687870000e-001) (32, 5.72018586099147800000e-002) (33, 4.67706441879272460000e-001) (34, 1.82932496070861820000e-001) (35, 1.01690268516540530000e+000) (36, 2.29067012667655940000e-001) (37, -4.70628678798675540000e-001) (38, 1.06106913089752200000e+000) (39, -1.14485514163970950000e+000) (40, 9.98402088880538940000e-002) (41, 5.01395881175994870000e-001) (42, 6.82009935379028320000e-001) (43, -9.93727445602416990000e-002) (44, -1.02651283144950870000e-001) (45, -3.10994267463684080000e-001) (46, 1.46916031837463380000e+000) (47, -9.31220233440399170000e-001) (48, 6.73974230885505680000e-002) (49, -1.11635640263557430000e-001) (50, -1.24127829074859620000e+000) (51, -1.09170846641063690000e-001) (52, -1.04382313787937160000e-001) (53, 1.59815037250518800000e+000) (54, 1.82718023657798770000e-001) (55, 1.59221008419990540000e-001) (56, 1.61623167991638180000e+000) (57, 1.01164154708385470000e-001) (58, -1.29076167941093440000e-001) (59, 1.45201861858367920000e-001) (60, -1.55153989791870120000e-001) (61, 6.03840410709381100000e-001) (62, 9.17638480663299560000e-001) (63, 5.37280201911926270000e-001) (64, -1.55907139182090760000e-001) (0, 9.48441028594970700000e-001) (1, 1.62544822692871090000e+000) (2, 2.73280954360961910000e+000) (3, 5.68100690841674800000e-001) (4, 2.09172934293746950000e-001) (5, 3.24702560901641850000e-001) (6, 3.80123466253280640000e-001) (7, 4.04493391513824460000e-001) (8, 1.35608530044555660000e+000) (9, 1.02749741077423100000e+000) (10, 7.30613183975219730000e+000) (11, 1.72324192523956300000e+000) (12, 9.89463567733764650000e-001) (13, 4.68708157539367680000e-001) (14, 3.57235908508300780000e-001) (15, 1.98977649211883540000e+000) (16, 5.78193902969360350000e-001) (17, 3.70856672525405880000e-001) (18, 2.51798963546752930000e+000) (19, 2.24322423338890080000e-001) (20, 4.60506886243820190000e-001) (21, 4.43588674068450930000e-001) (22, -2.81420898437500000000e+000) (23, 1.30784916877746580000e+000) (24, 3.37724328041076660000e+000) (25, 7.91628479957580570000e-001) (26, 1.12776911258697510000e+000) (27, 1.37555480003356930000e+000) (28, 8.10482859611511230000e-001) (29, -1.86890393495559690000e-001) (30, 1.84248733520507810000e+000) (31, 1.86260223388671880000e+000) (32, 1.13061845302581790000e+000) (33, 2.03669738769531250000e+000) (34, 1.97015917301177980000e+000) (35, 5.09033739566802980000e-001) (36, 5.31513571739196780000e-001) (37, 1.16931378841400150000e+000) (38, -1.20110297575592990000e-002) (39, 3.37515413761138920000e-001) (40, -5.70601761341094970000e-001) (41, -3.18363517522811890000e-001) (42, 2.10744552314281460000e-002) (43, 8.80056381225585940000e-001) (44, 4.76199626922607420000e+000) (45, 5.99882483482360840000e-001) (46, -9.38501283526420590000e-002) (47, 3.64313870668411250000e-001) (48, 4.57561224699020390000e-001) (49, 6.94878041744232180000e-001) (50, 1.31577384471893310000e+000) (51, 1.29282283782958980000e+000) (52, 3.03815078735351560000e+000) (53, 1.04594600200653080000e+000) (54, 2.25263401865959170000e-001) (55, 5.27121639251708980000e+000) (56, -1.91078007221221920000e-001) (57, 1.82578468322753910000e+000) (58, 1.31046581268310550000e+000) (59, 1.14800465106964110000e+000) (60, 1.29519116878509520000e+000) (61, -8.67986977100372310000e-002) (62, 5.36814391613006590000e-001) (63, -6.41597366333007810000e+000) (64, 6.50525987148284910000e-001) (0, -1.09897367656230930000e-001) (1, -1.78139686584472660000e-001) (2, 4.81845112517476080000e-003) (3, -1.01698055863380430000e-001) (4, -6.14929676055908200000e-001) (5, 1.49360716342926030000e-001) (6, 4.95599210262298580000e-003) (7, -3.53749990463256840000e-001) (8, -1.44359424710273740000e-001) (9, 1.45547389984130860000e-002) (10, 4.73175905644893650000e-002) (11, -1.08835980296134950000e-001) (12, -4.35394108295440670000e-001) (13, 2.75422722101211550000e-001) (14, -1.10701390076428650000e-003) (15, 8.28568935394287110000e-002) (16, 2.44819432497024540000e-001) (17, -6.60502135753631590000e-001) (18, 5.05635142326354980000e-001) (19, -4.27685350179672240000e-001) (20, 2.80665099620819090000e-001) (21, -1.01267643272876740000e-001) (22, 3.15076589584350590000e-001) (23, -5.36396494135260580000e-003) (24, 5.22026717662811280000e-001) (25, 6.46590769290924070000e-001) (26, 1.06292001903057100000e-001) (27, 3.98013532161712650000e-001) (28, 2.98513561487197880000e-001) (29, 6.24425828456878660000e-001) (30, 8.59987378120422360000e-001) (31, 9.74171340465545650000e-001) (32, 8.33449959754943850000e-001) (33, 7.84688532352447510000e-001) (34, 1.24034553766250610000e-001) (35, -4.42512631416320800000e-001) (36, 3.37884336709976200000e-001) (37, 8.87397527694702150000e-001) (38, -1.33963912725448610000e-001) (39, 4.72493082284927370000e-001) (40, 1.25495600700378420000e+000) (41, 1.16525627672672270000e-001) (42, -1.73622035980224610000e+000) (43, 1.20779372751712800000e-001) (44, 1.29606178961694240000e-003) (45, 7.21769452095031740000e-001) (46, 6.99911117553710940000e-001) (47, 4.97798860073089600000e-001) (48, 4.61617469787597660000e-001) (49, 6.15248203277587890000e-001) (50, 9.84798669815063480000e-002) (51, -1.72700613737106320000e-001) (52, 2.17613399028778080000e-001) (53, 2.40720987319946290000e-001) (54, 3.37308496236801150000e-001) (55, -2.21466138958930970000e-001) (56, -5.20848892629146580000e-002) (57, 8.24761033058166500000e-001) (58, 7.14189529418945310000e-001) (59, 1.62636205554008480000e-001) (60, 1.26093924045562740000e-002) (61, -5.59058599174022670000e-002) (62, -2.73290097713470460000e-001) (63, 1.20546363294124600000e-001) (64, -3.11129778623580930000e-001) (0, 6.88666522502899170000e-001) (1, 1.77501022815704350000e+000) (2, -8.11144337058067320000e-002) (3, 4.94502454996109010000e-001) (4, 8.79238903522491460000e-001) (5, 7.08769142627716060000e-001) (6, -7.47681617736816410000e-001) (7, 5.53979992866516110000e-001) (8, 1.56795513629913330000e+000) (9, 4.85676944255828860000e-001) (10, 1.07758426666259770000e+000) (11, 3.30542159080505370000e+000) (12, 1.87990331649780270000e+000) (13, 2.63742160797119140000e+000) (14, 1.67339131236076350000e-001) (15, 3.09485721588134770000e+000) (16, 9.27955210208892820000e-001) (17, 5.73630332946777340000e-001) (18, -1.38138830661773680000e+000) (19, 1.33974492549896240000e-001) (20, 4.21480149030685420000e-001) (21, 9.51088964939117430000e-001) (22, 3.58481192588806150000e+000) (23, -9.16891634464263920000e-001) (24, 3.09615874290466310000e+000) (25, 8.16946268081665040000e-001) (26, 7.93880939483642580000e-001) (27, 1.21390175819396970000e+000) (28, 1.33850526809692380000e+000) (29, 1.14136493206024170000e+000) (30, 6.17932379245758060000e-001) (31, 1.03800916671752930000e+000) (32, 8.86952459812164310000e-001) (33, 8.02938580513000490000e-001) (34, -3.57518702745437620000e-001) (35, 3.50835114717483520000e-001) (36, 1.19376134872436520000e+000) (37, 3.53691816329956050000e-001) (38, 3.72010618448257450000e-001) (39, -4.27149236202239990000e-001) (40, 2.83116722106933590000e+000) (41, 1.07299947738647460000e+000) (42, -3.75532895326614380000e-001) (43, 1.45688354969024660000e+000) (44, 3.30560863018035890000e-001) (45, 8.30854058265686040000e-001) (46, 1.64278253912925720000e-001) (47, 7.32471764087677000000e-001) (48, 9.57849919795989990000e-001) (49, 1.29262614250183110000e+000) (50, 7.80912280082702640000e-001) (51, 1.47638928890228270000e+000) (52, 8.65354776382446290000e-001) (53, 2.89570659399032590000e-001) (54, 9.92075145244598390000e-001) (55, 1.88989669084548950000e-001) (56, 4.78910803794860840000e-001) (57, 9.35155928134918210000e-001) (58, 1.15965735912323000000e+000) (59, 3.39592528343200680000e+000) (60, 1.06146121025085450000e+000) (61, 2.66802954673767090000e+000) (62, 2.34538722038269040000e+000) (63, 6.76152372360229490000e+000) (64, -8.54235738515853880000e-002) (0, 6.94013535976409910000e-001) (1, 1.57912683486938480000e+000) (2, 1.20056402683258060000e+000) (3, 3.10989409685134890000e-001) (4, 1.65746763348579410000e-001) (5, 3.02633106708526610000e-001) (6, 1.31334081292152400000e-001) (7, 5.22273361682891850000e-001) (8, 1.80076086521148680000e+000) (9, 4.14672642946243290000e-001) (10, -4.24863956868648530000e-003) (11, 7.49046027660369870000e-001) (12, 1.02091717720031740000e+000) (13, 4.62565004825592040000e-001) (14, 7.16061532497406010000e-001) (15, 8.06052625179290770000e-001) (16, 1.33290946483612060000e+000) (17, 3.32802116870880130000e-001) (18, 2.89352798461914060000e+000) (19, 3.18091303110122680000e-001) (20, 9.09291565418243410000e-001) (21, 1.00103712081909180000e+000) (22, 8.51552486419677730000e-001) (23, 1.41615152359008790000e+000) (24, 9.14213478565216060000e-001) (25, 1.31335198879241940000e+000) (26, 4.65329647064208980000e-001) (27, 1.29296457767486570000e+000) (28, 1.00600540637969970000e+000) (29, 6.47703170776367190000e-001) (30, 2.05716562271118160000e+000) (31, 1.50115263462066650000e+000) (32, 1.10318791866302490000e+000) (33, -2.28507781028747560000e+000) (34, 2.66383051872253420000e-001) (35, 1.31999880075454710000e-001) (36, 8.39571595191955570000e-001) (37, 4.26098048686981200000e-001) (38, 1.65656089782714840000e-001) (39, 1.93786650896072390000e-001) (40, 2.33874821662902830000e+000) (41, 7.39494919776916500000e-001) (42, 1.99452877044677730000e-001) (43, 1.35351336002349850000e+000) (44, 1.43245780467987060000e+000) (45, 6.75473511219024660000e-001) (46, -1.10444259643554690000e+000) (47, 5.85947036743164060000e-001) (48, 1.16934144496917720000e+000) (49, 8.48061442375183110000e-001) (50, 7.30128407478332520000e-001) (51, 7.98899948596954350000e-001) (52, 1.52164757251739500000e+000) (53, 3.17961812019348140000e-001) (54, 3.85314166545867920000e-001) (55, -9.60166633129119870000e-001) (56, 4.29888993501663210000e-001) (57, 1.13353955745697020000e+000) (58, 8.09246718883514400000e-001) (59, 1.61496162414550780000e+000) (60, 1.14104115962982180000e+000) (61, 3.05180132389068600000e-001) (62, 5.72900950908660890000e-001) (63, 8.98413360118865970000e-001) (64, 2.75494068861007690000e-001) (0, 1.03090419769287110000e+001) (1, 9.55072212219238280000e+000) (2, 8.80821704864501950000e-001) (3, -1.14603650569915770000e+000) (4, 1.41861379146575930000e+000) (5, 1.59478366374969480000e-001) (6, -8.22693705558776860000e-001) (7, 6.44664859771728520000e+000) (8, 4.92694711685180660000e+000) (9, 2.98764777183532710000e+000) (10, -8.00851154327392580000e+000) (11, 1.09606480598449710000e+000) (12, 1.09898066520690920000e+000) (13, -2.48748123645782470000e-001) (14, 3.37813049554824830000e-001) (15, 2.12118864059448240000e+000) (16, 2.63088166713714600000e-001) (17, 2.60146093368530270000e+000) (18, 7.90583193302154540000e-001) (19, 2.18904465436935420000e-001) (20, -1.29042789340019230000e-001) (21, 4.49863702058792110000e-001) (22, 3.65673042833805080000e-002) (23, 1.24849867820739750000e+000) (24, 2.85854768753051760000e+000) (25, -5.68941652774810790000e-001) (26, 1.07418924570083620000e-001) (27, -9.05516266822814940000e-001) (28, 1.94852165877819060000e-002) (29, 4.13038969039916990000e-001) (30, -1.91957075148820880000e-002) (31, -3.16236853599548340000e-001) (32, -9.10598337650299070000e-001) (33, 3.41786718368530270000e+000) (34, 3.66609208285808560000e-002) (35, -1.11288219690322880000e-001) (36, -8.94725024700164790000e-002) (37, -1.16289389133453370000e+000) (38, -1.80242940783500670000e-001) (39, 4.91148859262466430000e-001) (40, -2.78306752443313600000e-001) (41, -2.36913800239562990000e+000) (42, 1.39087128639221190000e+000) (43, 6.75762891769409180000e-001) (44, -1.27498269081115720000e+000) (45, -3.17043399810791020000e+000) (46, 1.58127582073211670000e+000) (47, -2.07556441426277160000e-001) (48, 2.30076766014099120000e+000) (49, 3.15825134515762330000e-001) (50, 5.59227466583251950000e-001) (51, 3.70837259292602540000e+000) (52, 2.46868088841438290000e-001) (53, -2.81602954864501950000e+000) (54, 2.15974617004394530000e+000) (55, 1.32772643119096760000e-002) (56, -6.89836919307708740000e-001) (57, -1.13444433212280270000e+001) (58, -1.17660069465637210000e+000) (59, 2.67898154258728030000e+000) (60, -1.24891304969787600000e+000) (61, 7.93553590774536130000e-001) (62, -3.02490424364805220000e-002) (63, -3.39074671268463130000e-001) (64, 3.69561553001403810000e-001) (0, -3.91728669404983520000e-001) (1, 1.77382171154022220000e-001) (2, -1.18157434463500980000e+000) (3, -1.94897800683975220000e-001) (4, -3.85688006877899170000e-001) (5, 2.22682684659957890000e-001) (6, -5.26762068271636960000e-001) (7, -1.38887524604797360000e+000) (8, -7.54035189747810360000e-002) (9, -5.21283969283103940000e-002) (10, 2.32477113604545590000e-001) (11, -3.29041332006454470000e-002) (12, -4.30347248911857600000e-002) (13, 2.08428353071212770000e-001) (14, -6.23679682612419130000e-002) (15, -1.56124040484428410000e-001) (16, 2.09188133478164670000e-001) (17, -4.59788650274276730000e-001) (18, 3.28549370169639590000e-002) (19, -3.29229295253753660000e-001) (20, 2.69775420427322390000e-001) (21, 9.64948534965515140000e-002) (22, 2.87040114402771000000e-001) (23, -3.25587652623653410000e-002) (24, -1.29992049187421800000e-003) (25, 2.83411502838134770000e-001) (26, 3.02292048931121830000e-001) (27, 2.66859024763107300000e-001) (28, 1.06793560087680820000e-001) (29, 2.86587119102478030000e-001) (30, -2.08371654152870180000e-001) (31, 1.56932815909385680000e-001) (32, 8.28435719013214110000e-001) (33, 1.24683177471160890000e+000) (34, -2.50246170908212660000e-002) (35, -1.53876453638076780000e-001) (36, 3.18047165870666500000e-001) (37, 4.09849405288696290000e-001) (38, -1.54398262500762940000e-001) (39, -2.76335868984460830000e-002) (40, 9.79874193668365480000e-001) (41, 1.64394453167915340000e-001) (42, -1.68338620662689210000e+000) (43, 2.72243261337280270000e-001) (44, 6.63729131221771240000e-001) (45, 6.78794503211975100000e-001) (46, 1.61468595266342160000e-001) (47, 3.77368092536926270000e-001) (48, 2.00423002243041990000e-001) (49, 8.16805601119995120000e-001) (50, 1.95690765976905820000e-002) (51, -5.93505427241325380000e-003) (52, 4.35199737548828130000e-001) (53, 1.30384728312492370000e-001) (54, 4.12157088518142700000e-001) (55, 4.09004837274551390000e-001) (56, 4.12759780883789060000e-001) (57, 3.56778830289840700000e-001) (58, 8.35809409618377690000e-001) (59, 6.18357770144939420000e-002) (60, 4.81433607637882230000e-003) (61, -2.48425781726837160000e-001) (62, -3.71346741914749150000e-001) (63, 5.61676435172557830000e-002) (64, -5.64550757408142090000e-001) (0, 3.38425064086914060000e+000) (1, -2.74103917181491850000e-002) (2, 2.72144484519958500000e+000) (3, 5.01622617244720460000e-001) (4, 1.83694624900817870000e+000) (5, 7.94614553451538090000e-001) (6, 1.05823314189910890000e+000) (7, 4.05332922935485840000e-001) (8, 1.63160026073455810000e-001) (9, 8.72282922267913820000e-001) (10, 8.84955972433090210000e-002) (11, 7.40124285221099850000e-001) (12, 1.89091265201568600000e-001) (13, 2.67011523246765140000e-002) (14, 2.84842252731323240000e-001) (15, 2.14236283302307130000e+000) (16, -5.03252983093261720000e-001) (17, 2.41436934471130370000e+000) (18, 2.75523781776428220000e-001) (19, 2.97568559646606450000e-001) (20, 3.04055571556091310000e-001) (21, 2.47233614325523380000e-001) (22, 1.16815328598022460000e+000) (23, 5.98172605037689210000e-001) (24, 8.14432322978973390000e-001) (25, -1.37015020847320560000e+000) (26, -2.19031915068626400000e-001) (27, -3.99165749549865720000e-001) (28, -4.62432235479354860000e-001) (29, 3.97897809743881230000e-002) (30, 1.01142011582851410000e-001) (31, -3.05647730827331540000e-001) (32, -8.82845222949981690000e-001) (33, -2.61646461486816410000e+000) (34, -5.42889952659606930000e-001) (35, -3.87300848960876460000e-002) (36, -3.64016592502593990000e-001) (37, -1.01430296897888180000e+000) (38, -5.41032075881958010000e-001) (39, 2.53581792116165160000e-001) (40, 1.54230035841465000000e-002) (41, 1.34394347667694090000e+000) (42, 4.44547891616821290000e+000) (43, 1.65412569046020510000e+000) (44, -2.71298885345458980000e+000) (45, 1.22501718997955320000e+000) (46, 7.70752876996994020000e-003) (47, -4.74134445190429690000e-001) (48, -1.18463143706321720000e-001) (49, -6.92606031894683840000e-001) (50, 1.36140894889831540000e+000) (51, 1.66759359836578370000e+000) (52, 6.66296601295471190000e-001) (53, -1.67165577411651610000e-001) (54, -3.79006117582321170000e-001) (55, -8.84571731090545650000e-001) (56, -1.17971360683441160000e+000) (57, -3.33960986137390140000e+000) (58, -4.31780719757080080000e+000) (59, -4.20169718563556670000e-002) (60, -2.97095465660095210000e+000) (61, 4.85343597829341890000e-002) (62, -3.99173229932785030000e-001) (63, -8.01468253135681150000e-001) (64, -1.51680544018745420000e-001) (0, 1.47697937488555910000e+000) (1, 1.68248033523559570000e+000) (2, 1.10596597194671630000e+000) (3, 4.06231671571731570000e-001) (4, 3.70736777782440190000e-001) (5, 2.69028633832931520000e-001) (6, 1.53595149517059330000e-001) (7, 5.35634160041809080000e-001) (8, 3.95659327507019040000e-001) (9, 8.31877887248992920000e-001) (10, 1.04511725902557370000e+000) (11, 1.35891199111938480000e-001) (12, 3.44641661643981930000e+000) (13, 4.67922389507293700000e-001) (14, 2.90068000555038450000e-001) (15, 4.51664495468139650000e+000) (16, 3.38265371322631840000e+000) (17, 2.95277148485183720000e-001) (18, 1.95302987098693850000e+000) (19, 4.62973088026046750000e-001) (20, 1.40713417530059810000e+000) (21, 3.19176495075225830000e-001) (22, 1.49130189418792720000e+000) (23, 1.94789564609527590000e+000) (24, 2.37964534759521480000e+000) (25, 9.34759795665740970000e-001) (26, 6.51914000511169430000e-001) (27, 4.65950787067413330000e-001) (28, 7.54757523536682130000e-001) (29, 8.89162302017211910000e-001) (30, 2.86012828350067140000e-001) (31, 5.78680872917175290000e-001) (32, 1.15191495418548580000e+000) (33, 2.07205629348754880000e+000) (34, 3.82892608642578130000e-001) (35, 2.34321698546409610000e-001) (36, 1.11497116088867190000e+000) (37, 4.21259939670562740000e-001) (38, 2.21567198634147640000e-001) (39, 6.93996608257293700000e-001) (40, 1.81117510795593260000e+000) (41, 5.30133426189422610000e-001) (42, 2.25793436169624330000e-001) (43, 8.73555183410644530000e-001) (44, 1.39479947090148930000e+000) (45, 4.08361971378326420000e-001) (46, 6.23277723789215090000e-001) (47, 5.50093114376068120000e-001) (48, -1.32364187240600590000e+001) (49, -3.24529480934143070000e+000) (50, 1.05405652523040770000e+000) (51, 1.54361295700073240000e+000) (52, 1.93297672271728520000e+000) (53, 8.20915475487709050000e-002) (54, 1.41960465908050540000e+000) (55, 6.96446597576141360000e-001) (56, 2.16081514954566960000e-001) (57, 1.09073615074157710000e+000) (58, 1.18572139739990230000e+000) (59, 1.63348388671875000000e+000) (60, 2.65270996093750000000e+000) (61, 1.94917917251586910000e-001) (62, 2.36882507801055910000e-001) (63, 1.95674538612365720000e+000) (64, 3.63384485244750980000e-001) (0, 1.01322002708911900000e-001) (1, 1.20273798704147340000e-001) (2, 2.19375386834144590000e-001) (3, 1.22853422164916990000e+000) (4, 2.11292409896850590000e+000) (5, 3.13553810119628910000e+000) (6, 6.75424432754516600000e+000) (7, 1.12747359275817870000e+000) (8, 1.73076438903808590000e+000) (9, -1.90589442849159240000e-001) (10, 3.60667735338211060000e-001) (11, 1.93827614188194270000e-001) (12, 4.06770825386047360000e-001) (13, 4.53687638044357300000e-001) (14, -2.94630169868469240000e-001) (15, -2.89720177650451660000e-001) (16, 2.01159805059432980000e-001) (17, 1.51723277568817140000e+000) (18, -1.69975101947784420000e-001) (19, 1.60886275768280030000e+000) (20, 2.16380968689918520000e-001) (21, 7.51027047634124760000e-001) (22, 6.60607039928436280000e-001) (23, -1.29711794853210450000e+000) (24, -5.50320744514465330000e-002) (25, -3.19286257028579710000e-001) (26, 2.63201385736465450000e-001) (27, 1.78480952978134160000e-001) (28, 2.38910332322120670000e-001) (29, -1.49368822574615480000e-001) (30, 1.89351394772529600000e-001) (31, -6.49173319339752200000e-001) (32, 1.07316620647907260000e-001) (33, 1.56080797314643860000e-001) (34, 1.42791378498077390000e+000) (35, 1.15365195274353030000e+000) (36, 9.84130054712295530000e-002) (37, 3.81893694400787350000e-001) (38, 8.39693486690521240000e-001) (39, 6.00748836994171140000e-001) (40, -7.65900760889053340000e-002) (41, -6.98994174599647520000e-002) (42, 3.35557007789611820000e+000) (43, 1.11728105694055560000e-002) (44, -6.79413318634033200000e-001) (45, 8.38045962154865260000e-003) (46, 3.45950812101364140000e-001) (47, 1.90703019499778750000e-001) (48, -3.91971349716186520000e-001) (49, 4.19834442436695100000e-002) (50, -1.23709782958030700000e-001) (51, 4.01626974344253540000e-001) (52, 1.49725228548049930000e-001) (53, 1.45231223106384280000e+000) (54, 2.49504316598176960000e-002) (55, 5.57377815246582030000e-001) (56, 6.82231783866882320000e-001) (57, -5.77630996704101560000e-001) (58, -2.05138981342315670000e-001) (59, 7.97789916396141050000e-002) (60, 2.43022173643112180000e-001) (61, 1.16976416110992430000e+000) (62, 1.17824757099151610000e+000) (63, 2.03102529048919680000e-001) (64, -5.90190887451171880000e-002) (0, -2.12431937456130980000e-001) (1, 1.02384865283966060000e+000) (2, 7.17032611370086670000e-001) (3, 6.26143872737884520000e-001) (4, 1.13881409168243410000e+000) (5, 6.43082189559936520000e+000) (6, 1.20981490612030030000e+000) (7, 4.09261035919189450000e+000) (8, 7.19993591308593750000e-001) (9, 4.93583291769027710000e-001) (10, -1.91438102722167970000e+000) (11, 1.95529055595397950000e+000) (12, 3.14866125583648680000e-001) (13, -8.03601443767547610000e-002) (14, 1.53694957494735720000e-001) (15, 2.16907763481140140000e+000) (16, -8.75082537531852720000e-002) (17, 7.23195552825927730000e-001) (18, -1.04753363132476810000e+000) (19, 2.28538036346435550000e-001) (20, 2.73852884769439700000e-001) (21, 2.82612532377243040000e-001) (22, 1.04856383800506590000e+000) (23, 1.20910212397575380000e-001) (24, -5.79885363578796390000e-001) (25, -2.27849388122558590000e+000) (26, 3.86678963899612430000e-001) (27, -1.25567823648452760000e-001) (28, -4.82189297676086430000e-001) (29, 4.82719630002975460000e-001) (30, 2.33767256140708920000e-001) (31, 4.95064035058021550000e-002) (32, -1.65984749794006350000e+000) (33, -9.95210051536560060000e-001) (34, 2.00034171342849730000e-001) (35, 4.23220545053482060000e-001) (36, -3.83367627859115600000e-001) (37, -1.10045623779296870000e+000) (38, 5.61707556247711180000e-001) (39, 4.25457358360290530000e-001) (40, -3.25253677368164060000e+000) (41, 6.73793971538543700000e-001) (42, 3.41097855567932130000e+000) (43, 4.31578576564788820000e-001) (44, -8.58873963356018070000e-001) (45, -1.06838822364807130000e-001) (46, 7.57916569709777830000e-002) (47, -3.67315411567687990000e-001) (48, 9.10571277141571040000e-001) (49, -2.29607686400413510000e-001) (50, 8.82028758525848390000e-001) (51, 2.22126460075378420000e+000) (52, -4.79292124509811400000e-002) (53, 3.38287186622619630000e+000) (54, -3.35282921791076660000e-001) (55, -3.71630936861038210000e-001) (56, 1.21345555782318120000e+000) (57, 1.20846426486968990000e+000) (58, -3.59867954254150390000e+000) (59, -8.72161626815795900000e-001) (60, -5.25585949420928960000e-001) (61, 1.57767776399850850000e-002) (62, -1.29579293727874760000e+000) (63, 4.19547885656356810000e-001) (64, 1.67143419384956360000e-001) (0, 9.36075627803802490000e-001) (1, 9.65881943702697750000e-001) (2, 1.37883174419403080000e+000) (3, 3.12006592750549320000e-001) (4, -1.16703465580940250000e-001) (5, 2.98308521509170530000e-001) (6, 1.09624475240707400000e-001) (7, 6.09163232147693630000e-002) (8, 1.66515016555786130000e+000) (9, 1.06122493743896480000e+000) (10, 8.73547732830047610000e-001) (11, -1.02923206984996800000e-001) (12, 5.64254760742187500000e-001) (13, 4.16022092103958130000e-001) (14, 4.03362184762954710000e-001) (15, 1.24831902980804440000e+000) (16, 8.56438159942626950000e-001) (17, 5.38793265819549560000e-001) (18, 1.92883157730102540000e+000) (19, -2.07520246505737300000e-001) (20, 2.23719000816345210000e-001) (21, 1.12487852573394780000e-001) (22, 7.25151360034942630000e-001) (23, 1.35046684741973880000e+000) (24, 5.26190090179443360000e+000) (25, 9.61953282356262210000e-001) (26, 4.16695564985275270000e-001) (27, 1.69663894176483150000e+000) (28, 6.22508764266967770000e-001) (29, 7.80285656452178960000e-001) (30, 7.25771665573120120000e-001) (31, 1.11000311374664310000e+000) (32, 7.65077829360961910000e-001) (33, -1.06014490127563480000e+000) (34, 1.44481301307678220000e+000) (35, 4.70370292663574220000e-001) (36, 1.08076751232147220000e-001) (37, -2.99372017383575440000e-001) (38, 3.41080635786056520000e-001) (39, 7.55216896533966060000e-001) (40, 2.87783074378967290000e+000) (41, 8.15867960453033450000e-001) (42, 4.85034994781017300000e-002) (43, 9.48397934436798100000e-001) (44, 1.39924561977386470000e+000) (45, 1.07214975357055660000e+000) (46, 3.14338326454162600000e+000) (47, 7.94834017753601070000e-001) (48, 1.32541072368621830000e+000) (49, 7.39237189292907710000e-001) (50, 1.03136754035949710000e+000) (51, 4.75692868232727050000e-001) (52, 9.71491456031799320000e-001) (53, 4.66574132442474370000e-001) (54, 1.54322683811187740000e+000) (55, 6.65001153945922850000e-001) (56, 4.46723747253417970000e+000) (57, 1.45051002502441410000e+000) (58, 9.11275327205657960000e-001) (59, -5.00050902366638180000e-001) (60, 8.90491306781768800000e-001) (61, 5.79056322574615480000e-001) (62, 3.68003547191619870000e-001) (63, 7.18923270702362060000e-001) (64, -9.75224897265434270000e-002) (0, -1.48521006107330320000e+000) (1, -4.72057723999023440000e+000) (2, -5.23597121238708500000e-001) (3, 7.06384479999542240000e-002) (4, -8.69933903217315670000e-001) (5, -5.15706062316894530000e-001) (6, 3.19808155298233030000e-001) (7, -4.27836561203002930000e+000) (8, 1.60543888807296750000e-001) (9, -3.63398611545562740000e-001) (10, -8.33466410636901860000e-001) (11, 4.10286277532577510000e-001) (12, -6.75939396023750310000e-003) (13, -1.76655352115631100000e-001) (14, 1.31942003965377810000e-001) (15, 1.28021344542503360000e-001) (16, 4.41982358694076540000e-001) (17, 1.01346039772033690000e+000) (18, 7.20779821276664730000e-002) (19, 1.18101060390472410000e-001) (20, 3.05316776037216190000e-001) (21, -2.20001698471605780000e-003) (22, -2.47571825981140140000e-001) (23, -5.70657737553119660000e-002) (24, 6.76110863685607910000e-001) (25, -3.74247312545776370000e-001) (26, 4.05744016170501710000e-001) (27, 4.75185364484786990000e-003) (28, 2.85122036933898930000e-001) (29, 5.06340026855468750000e-001) (30, 2.31852769851684570000e-001) (31, 2.00673627853393550000e+000) (32, 9.11005735397338870000e-001) (33, 7.70143687725067140000e-001) (34, -4.65925643220543860000e-003) (35, 1.44949361681938170000e-001) (36, 3.28538835048675540000e-001) (37, 3.28963994979858400000e-001) (38, -3.39262485504150390000e-001) (39, 8.56054127216339110000e-002) (40, -8.07820558547973630000e-001) (41, 1.84400916099548340000e-001) (42, -1.94198715686798100000e+000) (43, 7.88293033838272090000e-002) (44, 6.30345121026039120000e-002) (45, 1.23453974723815920000e+000) (46, -1.00793898105621340000e+000) (47, 2.78573483228683470000e-001) (48, -8.58114138245582580000e-002) (49, 3.27852427959442140000e-001) (50, 5.48693463206291200000e-002) (51, 4.24454361200332640000e-002) (52, 2.23349243402481080000e-001) (53, 2.33996331691741940000e-001) (54, 2.61807262897491460000e-001) (55, -2.08291247487068180000e-001) (56, 2.93305754661560060000e-001) (57, 2.93235611915588380000e+000) (58, 1.26724147796630860000e+000) (59, -1.45313531160354610000e-001) (60, -4.87105660140514370000e-002) (61, -6.40528976917266850000e-001) (62, 2.40626740455627440000e+000) (63, 1.94112807512283330000e-001) (64, -5.01101255416870120000e-001) (0, 1.58332371711730960000e+000) (1, 2.81707596778869630000e+000) (2, 1.43382441997528080000e+000) (3, 1.33342850208282470000e+000) (4, 4.09134745597839360000e-001) (5, 1.73720329999923710000e-001) (6, 5.12992382049560550000e-001) (7, 6.37553811073303220000e-001) (8, 4.68811362981796260000e-001) (9, 7.58454382419586180000e-001) (10, 3.24522644281387330000e-001) (11, 2.16926142573356630000e-001) (12, 7.71734535694122310000e-001) (13, 4.33396577835083010000e-001) (14, -1.64679303765296940000e-001) (15, -3.41792166233062740000e-001) (16, 5.67003250122070310000e+000) (17, 5.47589480876922610000e-001) (18, 1.47255277633666990000e+000) (19, 3.31638216972351070000e-001) (20, -9.33197200298309330000e-001) (21, 4.31165397167205810000e-001) (22, -5.69542312622070310000e+000) (23, 6.20779842138290410000e-002) (24, 1.50433158874511720000e+000) (25, 2.33210682868957520000e+000) (26, 2.25221157073974610000e-001) (27, 4.22831743955612180000e-001) (28, 2.16879463195800780000e+000) (29, 9.58782374858856200000e-001) (30, 3.55310320854187010000e-001) (31, 1.04121613502502440000e+000) (32, 1.18882405757904050000e+000) (33, 2.68919318914413450000e-001) (34, 7.13474690914154050000e-001) (35, 2.88994848728179930000e-001) (36, 9.09456789493560790000e-001) (37, 5.37021279335021970000e-001) (38, 1.26672759652137760000e-001) (39, 1.69012159109115600000e-001) (40, -4.87916278839111330000e+000) (41, 3.18867415189743040000e-001) (42, 4.28166061639785770000e-001) (43, 1.84417295455932620000e+000) (44, 7.46673047542572020000e-001) (45, 6.80672943592071530000e-001) (46, -3.26239538192749020000e+000) (47, -2.01684379577636720000e+000) (48, 1.85158073902130130000e-001) (49, 1.63404083251953120000e+000) (50, 1.58729100227355960000e+000) (51, 9.65151429176330570000e-001) (52, 1.24488103389739990000e+000) (53, -1.71684160828590390000e-001) (54, 7.41483569145202640000e-001) (55, 6.63886845111846920000e-001) (56, -3.88010430335998540000e+000) (57, 4.54767274856567380000e+000) (58, 1.82538077235221860000e-001) (59, 1.39613255858421330000e-001) (60, 2.21375083923339840000e+000) (61, 1.41181185841560360000e-001) (62, -2.66168862581253050000e-001) (63, 1.90359637141227720000e-001) (64, 9.52977314591407780000e-002) (0, 1.31238043308258060000e+000) (1, 1.09720158576965330000e+000) (2, 2.24510955810546870000e+000) (3, 3.66908168792724610000e+000) (4, 9.09140646457672120000e-001) (5, 2.64910173416137700000e+000) (6, 5.82289218902587890000e+000) (7, 5.64427757263183590000e+000) (8, 5.85870933532714840000e+000) (9, 2.80151510238647460000e+000) (10, 2.58416652679443360000e+000) (11, 4.07198333740234370000e+000) (12, 1.33675441145896910000e-001) (13, -2.53731906414031980000e-001) (14, -2.04922914505004880000e-001) (15, 1.48532712459564210000e+000) (16, 1.00430917739868160000e+000) (17, 3.39458167552948000000e-001) (18, -4.49580579996109010000e-001) (19, 5.55994808673858640000e-001) (20, 1.27797340974211690000e-002) (21, 9.30399894714355470000e-001) (22, 1.78697675466537480000e-001) (23, 1.95626580715179440000e+000) (24, -6.25031054019927980000e-001) (25, -4.61761474609375000000e+000) (26, -1.72714695334434510000e-001) (27, 9.02255356311798100000e-001) (28, -1.76600778102874760000e+000) (29, 5.83823323249816890000e-001) (30, -1.70517548918724060000e-001) (31, 3.07422971725463870000e+000) (32, -2.26703262329101560000e+000) (33, -5.69816291332244870000e-001) (34, 2.71233391761779790000e+000) (35, 4.86048340797424320000e-001) (36, -4.28311973810195920000e-001) (37, -7.10341989994049070000e-001) (38, 2.90298044681549070000e-001) (39, 2.26426795125007630000e-001) (40, -2.08215141296386720000e+000) (41, 3.82120341062545780000e-001) (42, 2.07822585105896000000e+000) (43, 8.38517546653747560000e-001) (44, -4.50903564691543580000e-001) (45, -1.28131759166717530000e+000) (46, -1.63513064384460450000e+000) (47, 7.81308412551879880000e-001) (48, -7.68385171890258790000e-001) (49, 8.57547640800476070000e-001) (50, 5.64143657684326170000e-001) (51, 2.58511495590209960000e+000) (52, 1.00875675678253170000e+000) (53, 2.69272112846374510000e+000) (54, 3.53395080566406250000e+000) (55, -8.11111629009246830000e-001) (56, -1.40699362754821780000e+000) (57, -1.20228605270385740000e+001) (58, 3.17828226089477540000e+000) (59, -6.30829930305480960000e-001) (60, -9.27190184593200680000e-001) (61, 1.03448685258626940000e-002) (62, 1.88050061464309690000e-001) (63, 6.12645983695983890000e-001) (64, 1.61122441291809080000e-001) (0, 7.44033455848693850000e-001) (1, 1.48950827121734620000e+000) (2, 3.16501647233963010000e-001) (3, 1.35288131237030030000e+000) (4, 1.18388156890869140000e+001) (5, 3.37721323966979980000e+000) (6, 1.04672551155090330000e+000) (7, 9.81803536415100100000e-001) (8, 3.85440182685852050000e+000) (9, 2.45577812194824220000e-001) (10, 2.85460114479064940000e-001) (11, -2.68472544848918910000e-002) (12, 4.99058336019515990000e-001) (13, 3.38109493255615230000e-001) (14, -2.49300464987754820000e-001) (15, 1.18857249617576600000e-001) (16, -1.67553472518920900000e+000) (17, 6.75685822963714600000e-001) (18, -2.98246294260025020000e-001) (19, 1.26707696914672850000e+000) (20, 2.17900529503822330000e-001) (21, 1.24370074272155760000e+000) (22, 4.51412826776504520000e-001) (23, 5.64601123332977290000e-001) (24, -9.09966602921485900000e-002) (25, -6.76147162914276120000e-001) (26, 5.97350180149078370000e-001) (27, 4.82937395572662350000e-001) (28, 9.98704060912132260000e-002) (29, -3.09533894062042240000e-001) (30, -7.89482414722442630000e-001) (31, 7.73606523871421810000e-002) (32, 4.69392836093902590000e-002) (33, -1.37163758277893070000e-001) (34, 6.11781001091003420000e-001) (35, 1.11090528964996340000e+000) (36, 1.39050200581550600000e-001) (37, 2.08283483982086180000e-001) (38, 7.19038248062133790000e-001) (39, -5.72305858135223390000e-001) (40, -6.19184970855712890000e-002) (41, 7.65361905097961430000e-001) (42, 3.26737189292907710000e+000) (43, -6.80735632777214050000e-002) (44, -3.69122147560119630000e-001) (45, 2.43413969874382020000e-001) (46, 3.79691645503044130000e-002) (47, -3.41118335723876950000e-001) (48, 2.55348944664001460000e+000) (49, 2.32452992349863050000e-002) (50, 2.66921937465667720000e-001) (51, 3.87369781732559200000e-001) (52, -5.28363049030303960000e-001) (53, 6.01715147495269780000e-001) (54, -2.04987421631813050000e-001) (55, 1.26609727740287780000e-002) (56, 4.64992189407348630000e+000) (57, -4.72165852785110470000e-001) (58, -5.53651079535484310000e-002) (59, 5.90482167899608610000e-003) (60, -7.62859106063842770000e-001) (61, 5.44424474239349370000e-001) (62, 6.24573051929473880000e-001) (63, -1.18472114205360410000e-001) (64, 1.92613095045089720000e-001) (0, 8.58998298645019530000e-001) (1, 7.12242722511291500000e-001) (2, -1.46144402027130130000e+000) (3, 4.08490091562271120000e-001) (4, 8.91517460346221920000e-001) (5, 1.63918301463127140000e-001) (6, -1.14432084560394290000e+000) (7, 1.84461343288421630000e+000) (8, 2.89659112691879270000e-001) (9, -2.99933195114135740000e-001) (10, 3.25010389089584350000e-001) (11, 4.63881790637969970000e-001) (12, 3.54721754789352420000e-001) (13, 5.25645256042480470000e-001) (14, 1.89675962924957280000e+000) (15, 4.42919164896011350000e-001) (16, -1.61545589566230770000e-001) (17, 1.04575657844543460000e+000) (18, 3.71964089572429660000e-002) (19, 2.20992517471313480000e+000) (20, 1.63047894835472110000e-001) (21, 8.87784004211425780000e-001) (22, 1.12574982643127440000e+000) (23, 4.72350478172302250000e-001) (24, 1.53935238718986510000e-001) (25, -2.47686818242073060000e-001) (26, 3.77481907606124880000e-001) (27, -9.87393110990524290000e-002) (28, -3.04186016321182250000e-001) (29, -8.71147140860557560000e-002) (30, 7.98227787017822270000e-002) (31, 1.08966737985610960000e-001) (32, 5.12481816112995150000e-002) (33, 9.32497456669807430000e-002) (34, 9.16116014122962950000e-002) (35, 6.71137750148773190000e-001) (36, 1.57310798764228820000e-001) (37, 1.97708368301391600000e-001) (38, 8.83761048316955570000e-001) (39, 3.79534578323364260000e+000) (40, -3.12611721456050870000e-002) (41, -3.18867027759552000000e-001) (42, 2.32777214050292970000e+000) (43, 2.14862346649169920000e-001) (44, -8.22308287024497990000e-002) (45, -1.14234693348407750000e-001) (46, 1.23809206485748290000e+000) (47, 4.28223311901092530000e-001) (48, 2.42027187347412110000e+000) (49, 3.38220000267028810000e-001) (50, 3.90840947628021240000e-001) (51, 3.17255973815917970000e-001) (52, -3.10675144195556640000e-001) (53, 2.66483753919601440000e-001) (54, -1.44665467739105220000e+000) (55, 3.46788883209228520000e-001) (56, 8.48133206367492680000e-001) (57, 7.33245983719825740000e-002) (58, -7.54569768905639650000e-001) (59, -1.12736441195011140000e-001) (60, 2.11900055408477780000e-001) (61, 8.67689430713653560000e-001) (62, 8.29996883869171140000e-001) (63, 2.83717125654220580000e-001) (64, 3.47312122583389280000e-001) (0, -1.23877754211425780000e+001) (1, 2.41561830043792720000e-001) (2, 1.06996929645538330000e+000) (3, 5.31676650047302250000e-001) (4, 1.19492566585540770000e+000) (5, 5.14543235301971440000e-001) (6, 1.70887374877929690000e+000) (7, 2.12675070762634280000e+000) (8, 3.89962220191955570000e+000) (9, -5.34174256026744840000e-002) (10, 1.66239514946937560000e-001) (11, 6.92009449005126950000e-001) (12, 6.13037586212158200000e-001) (13, 4.09051060676574710000e-001) (14, 2.34703630208969120000e-001) (15, 3.77249062061309810000e-001) (16, -9.28327292203903200000e-002) (17, 1.45970356464385990000e+000) (18, -7.36074224114418030000e-002) (19, 1.91500174999237060000e+000) (20, 4.13755953311920170000e-001) (21, 9.05277669429779050000e-001) (22, 1.16386795043945310000e+000) (23, 8.79017055034637450000e-001) (24, 4.73214825615286830000e-003) (25, 3.13592761754989620000e-001) (26, 1.98327183723449710000e-001) (27, -2.72423893213272090000e-001) (28, 1.12064205110073090000e-001) (29, -6.32506832480430600000e-002) (30, 4.14967596530914310000e-001) (31, 1.35918229818344120000e-001) (32, 5.12522459030151370000e-003) (33, 1.06152608990669250000e-001) (34, 7.55629777908325200000e-001) (35, 1.17017614841461180000e+000) (36, 1.24380484223365780000e-001) (37, 4.66938242316246030000e-002) (38, 6.98216855525970460000e-001) (39, 3.33752363920211790000e-001) (40, -2.15338636189699170000e-002) (41, 1.10912241041660310000e-001) (42, 2.41072154045104980000e+000) (43, 6.47283792495727540000e-002) (44, -2.10861966013908390000e-001) (45, 1.24585963785648350000e-001) (46, 3.83238494396209720000e-001) (47, 6.95849478244781490000e-001) (48, 1.86107367277145390000e-001) (49, 9.07110348343849180000e-002) (50, 4.21105958521366120000e-002) (51, 7.90905773639678960000e-001) (52, -2.42710635066032410000e-001) (53, 1.99400079250335690000e+000) (54, -1.95924535393714900000e-001) (55, 9.81305018067359920000e-002) (56, 1.12723028659820560000e+000) (57, -2.41662263870239260000e-001) (58, -1.42926067113876340000e-001) (59, 2.61307328939437870000e-001) (60, 2.20271781086921690000e-001) (61, 4.87579613924026490000e-001) (62, 1.97601997852325440000e+000) (63, 1.25004661083221440000e+000) (64, 2.43521139025688170000e-001) (0, -1.22729539871215820000e+000) (1, -2.75067567825317380000e-001) (2, -1.92400026321411130000e+000) (3, -8.20446193218231200000e-001) (4, -1.17196798324584960000e+000) (5, 8.91480892896652220000e-002) (6, -1.63613945245742800000e-001) (7, -1.35402011871337890000e+000) (8, -2.90756464004516600000e-001) (9, 1.64178639650344850000e-001) (10, 8.24239477515220640000e-002) (11, 1.40608102083206180000e-001) (12, 2.22118385136127470000e-002) (13, 1.43083721399307250000e-001) (14, -2.93180912733078000000e-001) (15, 1.51136592030525210000e-001) (16, 1.87847360968589780000e-001) (17, -5.75792968273162840000e-001) (18, 4.87705111503601070000e-001) (19, -1.64600774645805360000e-001) (20, 3.01100373268127440000e-001) (21, -1.19512137025594710000e-002) (22, 4.39086019992828370000e-001) (23, 3.69084700942039490000e-002) (24, 4.57095652818679810000e-001) (25, 5.76394736766815190000e-001) (26, 3.82490932941436770000e-001) (27, 5.74517846107482910000e-001) (28, 1.52802035212516780000e-001) (29, 3.29330503940582280000e-001) (30, 7.77208685874938960000e-001) (31, -2.22205266356468200000e-001) (32, 1.63233160972595210000e+000) (33, 7.08094716072082520000e-001) (34, 8.34536179900169370000e-002) (35, 4.37844619154930110000e-002) (36, 3.67210119962692260000e-001) (37, 5.84789454936981200000e-001) (38, -7.66915678977966310000e-002) (39, 4.94421392679214480000e-001) (40, 7.66680017113685610000e-002) (41, 3.44038270413875580000e-002) (42, -1.98963344097137450000e+000) (43, 1.20671451091766360000e-001) (44, 6.18383407592773440000e-001) (45, 6.03628635406494140000e-001) (46, 7.42099285125732420000e-001) (47, 4.27929520606994630000e-001) (48, 1.47022515535354610000e-001) (49, 3.94539237022399900000e-001) (50, -2.40458816289901730000e-001) (51, 4.23982664942741390000e-002) (52, 9.17344614863395690000e-002) (53, -2.85452574491500850000e-001) (54, 6.11744761466979980000e-001) (55, -1.10560691356658940000e+000) (56, -3.14524859189987180000e-001) (57, 1.12033581733703610000e+000) (58, 8.99898767471313480000e-001) (59, 5.38627952337265010000e-002) (60, 2.89882663637399670000e-002) (61, 2.06003174185752870000e-001) (62, -6.85029566287994380000e-001) (63, -1.89614027738571170000e-001) (64, -2.53748595714569090000e-001) (0, -2.27331066131591800000e+000) (1, 2.14364409446716310000e-001) (2, 3.04609477519989010000e-001) (3, 3.66838216781616210000e-001) (4, 8.56013774871826170000e-001) (5, 4.64961886405944820000e-001) (6, 1.81163978576660160000e+000) (7, 2.03891611099243160000e+000) (8, 3.51992696523666380000e-001) (9, -7.30602666735649110000e-002) (10, 1.56004428863525390000e-001) (11, 2.79623925685882570000e-001) (12, 2.67212718725204470000e-001) (13, 6.79598748683929440000e-001) (14, 1.02970373630523680000e+000) (15, 3.33606511354446410000e-001) (16, 2.45074823498725890000e-001) (17, 7.09959417581558230000e-002) (18, 2.29933634400367740000e-001) (19, 9.67412948608398440000e-001) (20, 4.63729023933410640000e-001) (21, 1.27029299736022950000e+000) (22, 1.16471159458160400000e+000) (23, 1.36507844924926760000e+000) (24, 1.41396805644035340000e-001) (25, -2.42965981364250180000e-001) (26, 1.02162611484527590000e+000) (27, 1.56091570854187010000e-001) (28, 1.17066316306591030000e-001) (29, 5.34991621971130370000e-001) (30, 5.88628411293029790000e-001) (31, 2.24334195256233220000e-001) (32, -1.00393528118729590000e-002) (33, 2.25889787077903750000e-001) (34, 1.64281332492828370000e+000) (35, 1.17356872558593750000e+000) (36, 4.39794093370437620000e-001) (37, 2.02690929174423220000e-001) (38, 6.50357365608215330000e-001) (39, 5.78762650489807130000e-001) (40, 1.19649820029735570000e-001) (41, 5.89070245623588560000e-002) (42, 8.16452217102050780000e+000) (43, 2.34538048505783080000e-001) (44, -4.28778886795043950000e-001) (45, 1.88279062509536740000e-001) (46, -1.09335407614707950000e-001) (47, 8.84816467761993410000e-001) (48, 6.25765472650527950000e-002) (49, 2.60726902633905410000e-002) (50, 2.75316327810287480000e-001) (51, 6.29944145679473880000e-001) (52, 7.89317712187767030000e-002) (53, 1.04659783840179440000e+000) (54, 1.46869674324989320000e-001) (55, 2.75311619043350220000e-001) (56, 6.28370046615600590000e-001) (57, -2.77170270681381230000e-001) (58, -3.56561690568923950000e-001) (59, 3.51512022316455840000e-002) (60, 2.86809533834457400000e-001) (61, 5.44014155864715580000e-001) (62, 5.85731983184814450000e+000) (63, 1.04214887619018550000e+001) (64, -6.99778854846954350000e-001) (0, 7.79995203018188480000e-001) (1, -1.70216858386993410000e+000) (2, 1.56957817077636720000e+000) (3, 2.05199614167213440000e-001) (4, 4.07208114862442020000e-001) (5, 2.95686334371566770000e-001) (6, 8.26667919754981990000e-002) (7, 4.37427014112472530000e-001) (8, 1.69142797589302060000e-001) (9, 4.46189785003662110000e+000) (10, 3.83258789777755740000e-001) (11, -2.34466814994812010000e+000) (12, 1.63634908199310300000e+000) (13, 1.57491660118103030000e+000) (14, 1.21673846244812010000e+000) (15, 2.66902589797973630000e+000) (16, 4.41031306982040410000e-001) (17, -3.17707568407058720000e-001) (18, -3.14515495300292970000e+000) (19, -8.50240141153335570000e-002) (20, 3.71999949216842650000e-001) (21, 7.04452931880950930000e-001) (22, 1.79888889193534850000e-001) (23, 1.83212101459503170000e+000) (24, 1.21131277084350590000e+000) (25, 6.24498724937438960000e-001) (26, 2.89178341627120970000e-001) (27, 1.64205110073089600000e+000) (28, 1.55652642250061040000e+000) (29, 1.36364185810089110000e+000) (30, 8.21213781833648680000e-001) (31, 1.50522327423095700000e+001) (32, 1.05525660514831540000e+000) (33, 3.98424208164215090000e-001) (34, 2.41419863700866700000e+000) (35, 3.06078135967254640000e-001) (36, 6.07997775077819820000e-001) (37, 4.68692719936370850000e-001) (38, 6.69346272945404050000e-001) (39, 9.40760195255279540000e-001) (40, 2.35736966133117680000e+000) (41, 9.40267920494079590000e-001) (42, 1.78896534442901610000e+000) (43, 2.03429388999938960000e+000) (44, 6.84434533119201660000e-001) (45, 5.16253352165222170000e-001) (46, 1.13017928600311280000e+000) (47, 8.14727663993835450000e-001) (48, 4.73857927322387700000e+000) (49, 6.71228885650634770000e-001) (50, 6.87553882598876950000e+000) (51, 1.15560185909271240000e+000) (52, 9.48567748069763180000e-001) (53, 3.51011574268341060000e-001) (54, 3.22594785690307620000e+000) (55, 2.95663666725158690000e+000) (56, 5.56302428245544430000e-001) (57, 1.52874171733856200000e+000) (58, 8.19144904613494870000e-001) (59, 9.19810831546783450000e-002) (60, -2.28833436965942380000e+000) (61, -8.44102978706359860000e-001) (62, 7.08817124366760250000e-001) (63, 1.39663743972778320000e+000) (64, 1.28006649017333980000e+000) (0, 2.76639699935913090000e-001) (1, 7.75468051433563230000e-001) (2, -5.13163208961486820000e-001) (3, 4.48233664035797120000e-001) (4, 1.58338189125061040000e-001) (5, 2.26545825600624080000e-001) (6, -8.64993214607238770000e-001) (7, 9.78600919246673580000e-001) (8, 1.56391620635986330000e+000) (9, 5.69392979145050050000e-001) (10, 1.09421658515930180000e+000) (11, 8.75283718109130860000e-001) (12, 6.66447758674621580000e-001) (13, 4.64105755090713500000e-001) (14, 3.57868999242782590000e-001) (15, -1.88854920864105220000e+000) (16, 5.16694605350494380000e-001) (17, 1.02497923374176030000e+000) (18, 3.57472229003906250000e+000) (19, 1.01802742481231690000e+000) (20, 8.74404728412628170000e-001) (21, 1.97563990950584410000e-001) (22, 6.57524108886718750000e-001) (23, 4.02071744203567500000e-001) (24, -4.50437702238559720000e-002) (25, -6.51568889617919920000e-001) (26, 5.80709874629974370000e-001) (27, 8.12107622623443600000e-001) (28, 3.55736470222473140000e+000) (29, 4.91428643465042110000e-001) (30, 7.32234818860888480000e-003) (31, 1.33929085731506350000e+000) (32, 1.01444494724273680000e+000) (33, 1.29259948730468750000e+001) (34, -1.88049960136413570000e+000) (35, 1.36415928602218630000e-001) (36, 1.16427469253540040000e+000) (37, 6.35461330413818360000e-001) (38, 3.65517079830169680000e-001) (39, 2.26886582374572750000e+000) (40, 1.56247401237487790000e+000) (41, 1.02811849117279050000e+000) (42, 5.60663461685180660000e-001) (43, 2.54225134849548340000e+000) (44, 1.40970385074615480000e+000) (45, 3.47618162631988530000e-001) (46, 8.81855487823486330000e-001) (47, 1.58382105827331540000e+000) (48, 8.62059116363525390000e-001) (49, 2.22175502777099610000e+000) (50, 3.16138648986816410000e+000) (51, 1.21403098106384280000e+000) (52, 1.67401778697967530000e+000) (53, -5.93738742172718050000e-002) (54, 1.38759553432464600000e+000) (55, 6.84181809425354000000e-001) (56, 7.38375246524810790000e-001) (57, 3.57404494285583500000e+000) (58, 1.82883393764495850000e+000) (59, 2.95532155036926270000e+000) (60, -2.87379145622253420000e+000) (61, 1.67442202568054200000e+000) (62, 7.41136912256479260000e-003) (63, 1.07110154628753660000e+000) (64, 4.87512797117233280000e-001) (0, -6.30380630493164060000e-001) (1, 1.19201533496379850000e-001) (2, 4.60952520370483400000e-001) (3, 9.34520661830902100000e-001) (4, 1.52958333492279050000e+000) (5, 3.74641728401184080000e+000) (6, 3.81269764900207520000e+000) (7, 1.09451937675476070000e+000) (8, 1.30420997738838200000e-001) (9, 6.02428242564201350000e-002) (10, 2.46257051825523380000e-001) (11, 6.64225399494171140000e-001) (12, 7.07864761352539060000e-001) (13, 8.65698337554931640000e-001) (14, 1.62831091880798340000e+000) (15, 3.00709456205368040000e-001) (16, -7.61006772518157960000e-002) (17, 1.31295096874237060000e+000) (18, -1.09918795526027680000e-001) (19, 1.61501646041870120000e+000) (20, 3.16037505865097050000e-001) (21, 6.07248544692993160000e-001) (22, 7.44210720062255860000e-001) (23, 2.27888315916061400000e-001) (24, 1.00334696471691130000e-001) (25, -5.28893411159515380000e-001) (26, 8.61131250858306880000e-002) (27, 1.18348322808742520000e-001) (28, 1.73339948058128360000e-001) (29, 3.47775846719741820000e-001) (30, 3.12152624130249020000e-001) (31, -5.11710357666015620000e+000) (32, -6.30328208208084110000e-002) (33, 2.17216629534959790000e-002) (34, 6.83011531829833980000e-001) (35, 1.19919502735137940000e+000) (36, 1.38639984652400020000e-002) (37, 7.20820575952529910000e-002) (38, 1.41456890106201170000e+000) (39, -1.72981813549995420000e-001) (40, 1.36834055185317990000e-001) (41, 2.10390001535415650000e-001) (42, 2.34249830245971680000e+000) (43, 9.99320968985557560000e-002) (44, -3.45872014760971070000e-001) (45, 1.69915109872817990000e-001) (46, 2.63407438993453980000e-001) (47, 4.48417276144027710000e-001) (48, -4.98999208211898800000e-001) (49, -1.83449778705835340000e-002) (50, 6.73045963048934940000e-002) (51, 1.80692017078399660000e-001) (52, -2.83967614173889160000e-001) (53, 1.30190944671630860000e+000) (54, -2.90964860469102860000e-002) (55, 3.60056906938552860000e-001) (56, 5.87700188159942630000e-001) (57, -9.25442129373550420000e-002) (58, -2.32270196080207820000e-001) (59, -9.00121480226516720000e-002) (60, 9.95050594210624690000e-002) (61, 8.69485974311828610000e-001) (62, 2.70784950256347660000e+000) (63, 6.36155366897583010000e-001) (64, 2.19291478395462040000e-001) (0, 2.40955371409654620000e-002) (1, 2.58629888296127320000e-001) (2, -3.26395899057388310000e-001) (3, -7.04270303249359130000e-001) (4, -1.14111438393592830000e-001) (5, -5.78909218311309810000e-001) (6, 1.38255447149276730000e-001) (7, -2.02652201056480410000e-001) (8, -9.38733071088790890000e-002) (9, 3.66348147392272950000e-001) (10, -1.07827812433242800000e-001) (11, -2.49710112810134890000e-001) (12, 1.08747966587543490000e-001) (13, 1.17601864039897920000e-001) (14, 4.74069118499755860000e-002) (15, 9.98971313238143920000e-002) (16, 2.04812541604042050000e-001) (17, -4.96000677347183230000e-001) (18, 3.36511999368667600000e-001) (19, -1.06753140687942500000e-001) (20, 3.93788814544677730000e-001) (21, -4.14850153028965000000e-002) (22, 1.51081364601850510000e-002) (23, 1.72723576426506040000e-001) (24, 6.56516909599304200000e-001) (25, 1.00439131259918210000e+000) (26, 5.41551649570465090000e-001) (27, 3.95216286182403560000e-001) (28, 2.86531209945678710000e-001) (29, 4.94312942028045650000e-001) (30, 1.38761207461357120000e-001) (31, 1.19093203544616700000e+000) (32, 7.42072761058807370000e-001) (33, 3.50962728261947630000e-001) (34, 5.51085919141769410000e-002) (35, -5.02555251121521000000e-001) (36, 4.24848496913909910000e-001) (37, 1.05318129062652590000e+000) (38, 1.19847850874066350000e-002) (39, 5.67974805831909180000e-001) (40, 5.28151631355285640000e-001) (41, 2.37623944878578190000e-001) (42, -1.25506353378295900000e+000) (43, 1.43721878528594970000e-001) (44, 2.89954125881195070000e-001) (45, 5.12840569019317630000e-001) (46, 4.69191342592239380000e-001) (47, 5.16536593437194820000e-001) (48, 1.47327199578285220000e-001) (49, 7.33447790145874020000e-001) (50, 3.92168672988191250000e-004) (51, -2.95337941497564320000e-002) (52, 2.58730322122573850000e-001) (53, 1.09149441123008730000e-001) (54, 5.97034990787506100000e-001) (55, 1.35183498263359070000e-001) (56, -2.64416813850402830000e-001) (57, 8.53827476501464840000e-001) (58, 4.87650722265243530000e-001) (59, 2.38393679261207580000e-001) (60, -2.57942527532577510000e-002) (61, -2.91768133640289310000e-001) (62, -3.60933095216751100000e-001) (63, 4.81732413172721860000e-002) (64, -4.22495245933532710000e-001) (0, -1.19936183094978330000e-001) (1, 3.93968559801578520000e-002) (2, -3.82364779710769650000e-001) (3, -6.85481607913970950000e-001) (4, -1.75013470649719240000e+000) (5, 3.90200950205326080000e-002) (6, -9.14718627929687500000e-001) (7, -3.96614521741867070000e-001) (8, -9.44782793521881100000e-001) (9, -6.75018653273582460000e-002) (10, 4.13718163967132570000e-001) (11, 1.35179996490478520000e-001) (12, -1.01352259516716000000e-001) (13, 5.44312992133200170000e-004) (14, -3.59965085983276370000e-001) (15, -4.14014942944049840000e-002) (16, 3.28468590974807740000e-001) (17, -6.59122765064239500000e-001) (18, 5.22215962409973140000e-001) (19, -5.67237675189971920000e-001) (20, 2.45509684085845950000e-001) (21, -2.06283971667289730000e-001) (22, 9.99038666486740110000e-002) (23, -6.29881978034973140000e-001) (24, 5.40673255920410160000e-001) (25, 8.87716054916381840000e-001) (26, 5.55848330259323120000e-002) (27, 3.40805560350418090000e-001) (28, 2.19404980540275570000e-001) (29, 6.57652080059051510000e-001) (30, -2.09399312734603880000e-001) (31, 4.79180097579956050000e-001) (32, 7.41786181926727290000e-001) (33, 5.60093045234680180000e-001) (34, 5.45403920114040370000e-002) (35, -3.48893702030181880000e-001) (36, 2.60146975517272950000e-001) (37, 4.01564329862594600000e-001) (38, -1.69771403074264530000e-001) (39, 1.18990965187549590000e-001) (40, 4.56966668367385860000e-001) (41, 2.99714833498001100000e-001) (42, -1.66307854652404790000e+000) (43, 4.67653125524520870000e-002) (44, 6.50314629077911380000e-001) (45, 6.50025486946105960000e-001) (46, 2.85372257232666020000e-001) (47, 2.77611881494522090000e-001) (48, 3.73137235641479490000e-001) (49, 2.67158091068267820000e-001) (50, 2.47111752629280090000e-001) (51, -7.05802887678146360000e-002) (52, 5.28092265129089360000e-001) (53, -6.98266863822937010000e-001) (54, 2.28379517793655400000e-001) (55, 7.41664767265319820000e-002) (56, 6.04231990873813630000e-002) (57, 1.26171660423278810000e+000) (58, 1.33313640952110290000e-001) (59, 3.56239736080169680000e-001) (60, -5.85234574973583220000e-002) (61, -7.45633319020271300000e-002) (62, -3.86214017868041990000e-001) (63, 1.23559916391968730000e-002) (64, -5.61739504337310790000e-002) (0, -6.83875381946563720000e-002) (1, 6.01845204830169680000e-001) (2, 7.20517784357070920000e-002) (3, -3.73802155256271360000e-001) (4, 1.38521268963813780000e-002) (5, 9.76743325591087340000e-002) (6, 7.95215666294097900000e-002) (7, -2.08063173294067380000e+000) (8, -2.16347932815551760000e-001) (9, 1.36847883462905880000e-001) (10, 1.66680499911308290000e-001) (11, 9.23836827278137210000e-002) (12, 6.76231011748313900000e-002) (13, 2.56822288036346440000e-001) (14, 3.57006024569272990000e-003) (15, -2.41794633865356450000e+000) (16, 2.52242326736450200000e-001) (17, -1.04448497295379640000e+000) (18, 1.83130562305450440000e-001) (19, -7.05178916454315190000e-001) (20, 2.61851549148559570000e-001) (21, -1.69211417436599730000e-001) (22, 3.80244523286819460000e-001) (23, 6.89313635230064390000e-002) (24, 4.57538515329360960000e-001) (25, 1.63575962185859680000e-001) (26, 6.97921097278594970000e-001) (27, 3.06020528078079220000e-001) (28, 1.11558936536312100000e-001) (29, 3.82137030363082890000e-001) (30, 4.09332633018493650000e-001) (31, 7.79586195945739750000e-001) (32, 6.64673507213592530000e-001) (33, 5.30941069126129150000e-001) (34, -1.67833462357521060000e-001) (35, -3.36222022771835330000e-001) (36, 3.19723129272460940000e-001) (37, 7.12644338607788090000e-001) (38, 5.01971878111362460000e-002) (39, 2.26913228631019590000e-001) (40, 2.09071278572082520000e+000) (41, 4.19628530740737920000e-001) (42, -1.17198479175567630000e+000) (43, 1.17420919239521030000e-001) (44, 7.29717016220092770000e-001) (45, 6.46521806716918950000e-001) (46, 1.04768526554107670000e+000) (47, 4.60785716772079470000e-001) (48, -1.69463604688644410000e-002) (49, 5.67303180694580080000e-001) (50, 5.47842495143413540000e-002) (51, -5.88039075955748560000e-003) (52, 2.53640800714492800000e-001) (53, -7.72486105561256410000e-002) (54, -3.71471121907234190000e-002) (55, 3.43225076794624330000e-002) (56, -5.59657961130142210000e-002) (57, 8.72906982898712160000e-001) (58, 8.27171146869659420000e-001) (59, 1.51343327015638350000e-002) (60, 1.42222791910171510000e-001) (61, 7.48225897550582890000e-002) (62, -3.45612019300460820000e-001) (63, 1.18110841140151020000e-002) (64, -4.53790515661239620000e-001) (0, 7.72209227085113530000e-001) (1, -5.23089528083801270000e-001) (2, -1.62399709224700930000e+000) (3, 1.23726296424865720000e+000) (4, 